/*
 * Copyright (c) 2026 EdgeImpulse Inc.
 *
 * Generated by Edge Impulse and licensed under the applicable Edge Impulse
 * Terms of Service. Community and Professional Terms of Service
 * (https://edgeimpulse.com/legal/terms-of-service) or Enterprise Terms of
 * Service (https://edgeimpulse.com/legal/enterprise-terms-of-service),
 * according to your product plan subscription (the “License”).
 *
 * This software, documentation and other associated files (collectively referred
 * to as the “Software”) is a single SDK variation generated by the Edge Impulse
 * platform and requires an active paid Edge Impulse subscription to use this
 * Software for any purpose.
 *
 * You may NOT use this Software unless you have an active Edge Impulse subscription
 * that meets the eligibility requirements for the applicable License, subject to
 * your full and continued compliance with the terms and conditions of the License,
 * including without limitation any usage restrictions under the applicable License.
 *
 * If you do not have an active Edge Impulse product plan subscription, or if use
 * of this Software exceeds the usage limitations of your Edge Impulse product plan
 * subscription, you are not permitted to use this Software and must immediately
 * delete and erase all copies of this Software within your control or possession.
 * Edge Impulse reserves all rights and remedies available to enforce its rights.
 *
 * Unless required by applicable law or agreed to in writing, the Software is
 * distributed on an "AS IS" BASIS, WITHOUT WARRANTIES OR CONDITIONS OF ANY KIND,
 * either express or implied. See the License for the specific language governing
 * permissions, disclaimers and limitations under the License.
 */
// Generated on: 11.05.2026 16:16:16

#include <stdio.h>
#include <stdlib.h>
#include "edge-impulse-sdk/tensorflow/lite/c/builtin_op_data.h"
#include "edge-impulse-sdk/tensorflow/lite/c/common.h"
#include "edge-impulse-sdk/tensorflow/lite/micro/micro_mutable_op_resolver.h"
#include "edge-impulse-sdk/porting/ei_classifier_porting.h"

#if EI_CLASSIFIER_PRINT_STATE
#if defined(__cplusplus) && EI_C_LINKAGE == 1
extern "C" {
    extern void ei_printf(const char *format, ...);
}
#else
extern void ei_printf(const char *format, ...);
#endif
#endif

#define STRINGIZE(x) #x
#define STRINGIZE_VALUE_OF(x) STRINGIZE(x)

#if defined (__GNUC__)  /* GNU compiler */
#define ALIGN(X) __attribute__((aligned(X)))
#define DEFINE_SECTION(x) __attribute__((section(x)))
#elif defined (_MSC_VER)
#define ALIGN(X) __declspec(align(X))
#elif defined (__TASKING__) /* TASKING Compiler */
#define ALIGN(X) __align(X)
#define DEFINE_SECTION(x) __attribute__((section(x)))
#elif defined (__ARMCC_VERSION) /* Arm Compiler */
#define ALIGN(X) __ALIGNED(x)
#define DEFINE_SECTION(x) __attribute__((section(x)))
#elif defined (__ICCARM__) /* IAR Compiler */
#define ALIGN(x) __attribute__((aligned(x)))
#define DEFINE_SECTION(x) __attribute__((section(x)))
#elif defined (__clang__) /* LLVM/Clang Compiler */
#define ALIGN(X) __ALIGNED(x)
#define DEFINE_SECTION(x) __attribute__((section(x)))
#endif

#if defined(EI_MODEL_SECTION) && (defined(__GNUC__) || defined(__clang__))
#define MODEL_SECTION(X) __attribute__((section(STRINGIZE_VALUE_OF(X))))
#else
#define MODEL_SECTION(X)
#endif

#ifndef EI_MAX_SCRATCH_BUFFER_COUNT
#ifndef CONFIG_IDF_TARGET_ESP32S3
#define EI_MAX_SCRATCH_BUFFER_COUNT 14
#else
#define EI_MAX_SCRATCH_BUFFER_COUNT 28
#endif // CONFIG_IDF_TARGET_ESP32S3
#endif // EI_MAX_SCRATCH_BUFFER_COUNT

#ifndef EI_MAX_OVERFLOW_BUFFER_COUNT
#define EI_MAX_OVERFLOW_BUFFER_COUNT 10
#endif // EI_MAX_OVERFLOW_BUFFER_COUNT

using namespace tflite;
using namespace tflite::ops;
using namespace tflite::ops::micro;

namespace {

#if defined(EI_CLASSIFIER_ALLOCATION_STATIC_HIMAX) || defined(EI_CLASSIFIER_ALLOCATION_STATIC_HIMAX_GNU)
constexpr int kTensorArenaSize = 242576;
#else
constexpr int kTensorArenaSize = 241552;
#endif

#if defined(EI_CLASSIFIER_ALLOCATION_STATIC)
#if defined (EI_TENSOR_ARENA_LOCATION)
uint8_t tensor_arena[kTensorArenaSize] ALIGN(16) DEFINE_SECTION(STRINGIZE_VALUE_OF(EI_TENSOR_ARENA_LOCATION));
#else
uint8_t tensor_arena[kTensorArenaSize] ALIGN(16);
#endif
#elif defined(EI_CLASSIFIER_ALLOCATION_STATIC_HIMAX)
#pragma Bss(".tensor_arena")
uint8_t tensor_arena[kTensorArenaSize] ALIGN(16);
#pragma Bss()
#elif defined(EI_CLASSIFIER_ALLOCATION_STATIC_HIMAX_GNU)
uint8_t tensor_arena[kTensorArenaSize] ALIGN(16) __attribute__((section(".tensor_arena")));
#else
#define EI_CLASSIFIER_ALLOCATION_HEAP 1
uint8_t* tensor_arena = NULL;
#endif

static uint8_t* tensor_boundary;
static uint8_t* current_location;

template <int SZ, class T> struct TfArray {
  int sz; T elem[SZ];
};

enum used_operators_e {
  OP_CONV_2D, OP_DEPTHWISE_CONV_2D, OP_PAD, OP_ADD, OP_SOFTMAX,  OP_LAST
};

struct TensorInfo_t { // subset of TfLiteTensor used for initialization from constant memory
  TfLiteAllocationType allocation_type;
  TfLiteType type;
  void* data;
  TfLiteIntArray* dims;
  size_t bytes;
  TfLiteQuantization quantization;
};

typedef struct {
  TfLiteTensor tensor;
  int16_t index;
} TfLiteTensorWithIndex;

typedef struct {
  TfLiteEvalTensor tensor;
  int16_t index;
} TfLiteEvalTensorWithIndex;

TfLiteContext ctx{};
static const int MAX_TFL_TENSOR_COUNT = 4;
static TfLiteTensorWithIndex tflTensors[MAX_TFL_TENSOR_COUNT];
static const int MAX_TFL_EVAL_COUNT = 4;
static TfLiteEvalTensorWithIndex tflEvalTensors[MAX_TFL_EVAL_COUNT];
TfLiteRegistration registrations[OP_LAST];

namespace g0 {
const TfArray<4, int> tensor_dimension0 = { 4, { 1,96,96,1 } };
const TfArray<1, float> quant0_scale = { 1, { 0.0039215688593685627, } };
const TfArray<1, int> quant0_zero = { 1, { -128 } };
const TfLiteAffineQuantization quant0 = { (TfLiteFloatArray*)&quant0_scale, (TfLiteIntArray*)&quant0_zero, 0 };
const MODEL_SECTION(EI_MODEL_SECTION) ALIGN(16) int32_t tensor_data1[4*2] = { 
  0, 0, 
  0, 1, 
  0, 1, 
  0, 0, 
};
const TfArray<2, int> tensor_dimension1 = { 2, { 4,2 } };
const MODEL_SECTION(EI_MODEL_SECTION) ALIGN(8) int32_t tensor_data2[2] = { 39234, -41710, };
const TfArray<1, int> tensor_dimension2 = { 1, { 2 } };
const TfArray<2, float> quant2_scale = { 2, { 0.00011042426922358572, 0.0001004715813905932, } };
const TfArray<2, int> quant2_zero = { 2, { 0,0 } };
const TfLiteAffineQuantization quant2 = { (TfLiteFloatArray*)&quant2_scale, (TfLiteIntArray*)&quant2_zero, 0 };
const MODEL_SECTION(EI_MODEL_SECTION) ALIGN(16) int8_t tensor_data3[2*1*1*32] = { 
  /* [0][0][][] */ 20,-36,-63,80,-49,0,-42,46,127,-12,-3,-35,-39,51,-8,30,78,-42,-30,-36,113,97,61,-82,-86,-84,18,60,0,-34,84,48, 
  /* [1][0][][] */ 52,67,68,-55,-66,69,-6,13,-36,-11,32,92,100,40,36,-1,-35,1,-53,-81,-70,32,28,99,76,64,-48,-3,91,-94,-127,-14, 
};
const TfArray<4, int> tensor_dimension3 = { 4, { 2,1,1,32 } };
const TfArray<2, float> quant3_scale = { 2, { 0.0044259079732000828, 0.0040269950404763222, } };
const TfLiteAffineQuantization quant3 = { (TfLiteFloatArray*)&quant3_scale, (TfLiteIntArray*)&g0::quant2_zero, 0 };
const MODEL_SECTION(EI_MODEL_SECTION) ALIGN(16) int32_t tensor_data4[32] = { 307, 181, 219, -405, -394, 238, -543, 358, 106, -425, 163, 240, 225, 327, -25, -379, -158, -932, -303, -260, -207, 325, 83, 182, 120, 63, 58, -350, -53, -177, 1717, -331, };
const TfArray<1, int> tensor_dimension4 = { 1, { 32 } };
const TfArray<32, float> quant4_scale = { 32, { 3.900118827004917e-05, 4.6259992814157158e-05, 4.0896520658861846e-05, 4.0019989683059976e-05, 3.9513153751613572e-05, 3.9419672248186544e-05, 4.0624428947921842e-05, 4.2574050894472748e-05, 4.0677747165318578e-05, 4.2609655793057755e-05, 4.083455860381946e-05, 4.1135754145216197e-05, 3.9425813156412914e-05, 3.9526566979475319e-05, 4.1425588278798386e-05, 3.9186987123684958e-05, 4.3784872104879469e-05, 4.8225891077890992e-05, 4.0290724427904934e-05, 3.8856567698530853e-05, 3.9303704397752881e-05, 3.8094469346106052e-05, 4.387224544188939e-05, 4.2539744754321873e-05, 4.5073615183355287e-05, 4.3490341340657324e-05, 4.090731090400368e-05, 4.0324277506442741e-05, 3.9891085179988295e-05, 3.825536259682849e-05, 6.2507795519195497e-05, 4.143335172557272e-05, } };
const TfArray<32, int> quant4_zero = { 32, { 0,0,0,0,0,0,0,0,0,0,0,0,0,0,0,0,0,0,0,0,0,0,0,0,0,0,0,0,0,0,0,0 } };
const TfLiteAffineQuantization quant4 = { (TfLiteFloatArray*)&quant4_scale, (TfLiteIntArray*)&quant4_zero, 0 };
const MODEL_SECTION(EI_MODEL_SECTION) ALIGN(16) int8_t tensor_data5[32*1*1*96] = { 
  /* [0][0][][] */ -30,-54,115,17,108,-9,-87,-88,59,-89,-107,7,66,17,-32,62,-52,-31,-58,-53,-72,-107,6,118,-123,20,91,-47,120,6,-13,-80,93,-58,-91,76,-108,-80,-86,29,82,-96,-89,109,56,-111,120,-17,-3,-56,-25,90,-70,-53,-89,114,42,77,122,-109,-73,90,-53,56,-1,20,82,104,62,110,95,-114,114,-105,50,92,-108,22,-57,38,64,23,109,-18,-59,-46,-94,110,37,127,-5,-110,24,73,47,21, 
  /* [1][0][][] */ -41,27,-56,6,-27,79,36,20,70,-76,-91,103,67,-18,31,60,105,-35,36,111,-37,-2,34,32,28,24,-24,99,16,13,96,-52,59,100,0,33,56,50,-4,-49,-59,-3,-5,-82,-24,30,-17,-47,-33,-75,110,34,16,71,-62,-37,32,97,48,74,-47,109,-59,-65,-42,38,75,41,100,38,22,15,-90,74,-39,42,75,-28,-29,70,-64,78,-35,-127,24,98,-66,-61,73,75,87,32,84,83,37,-10, 
  /* [2][0][][] */ 57,35,-53,103,-12,-48,91,108,-98,102,-34,127,101,-8,93,-108,-46,-25,39,62,-90,-11,114,31,-27,89,119,15,-61,89,89,101,-62,-11,-83,-97,-74,90,115,-17,-120,-86,32,-2,-75,115,-13,-75,85,38,101,-106,-39,59,30,26,-59,105,-68,6,-11,67,-36,75,102,55,57,93,-85,84,16,-64,45,-83,37,29,-50,-9,14,17,46,-90,3,-64,0,-103,-24,-33,93,116,-19,18,-32,-79,-32,-74, 
  /* [3][0][][] */ 70,-6,33,-29,-78,48,-120,33,46,17,60,4,89,92,69,1,103,96,-62,7,110,-95,-76,-121,-33,-121,-90,102,38,-107,82,4,-63,-42,-24,-20,-99,-31,36,45,-29,-99,-111,-5,70,24,-54,-91,68,-91,37,1,90,26,88,-109,-124,-126,-126,-65,-105,33,-43,69,50,-40,-69,-37,-40,-75,-4,96,16,-112,50,-56,26,98,90,-71,-99,-127,31,92,25,41,-55,-126,-92,39,-6,-116,92,-100,-104,37, 
  /* [4][0][][] */ 47,99,-7,48,-35,-34,25,11,56,86,-14,47,22,-44,-19,-72,-34,-12,-73,6,102,-99,80,20,-23,-10,57,-69,-58,29,-77,-61,64,111,7,-111,-59,-9,-123,45,-54,-68,-83,-99,26,103,31,54,18,-49,-24,-77,-99,38,-95,13,32,-104,29,9,0,-84,-47,-76,-57,49,-6,-44,21,-108,-107,-93,-62,21,98,48,55,-30,-16,-65,-1,-54,-108,28,-4,64,85,-4,-127,-81,39,39,25,96,-112,-21, 
  /* [5][0][][] */ 110,-96,87,94,49,-111,31,71,108,-105,0,-61,33,108,46,40,71,64,-69,108,37,56,20,-21,-110,-56,-4,-90,57,39,26,-97,-34,10,-64,27,-109,-40,56,29,-96,-63,58,103,-28,22,45,-52,-127,110,36,13,47,13,44,-17,120,59,-62,-41,37,-64,38,-69,-23,111,-20,34,84,14,113,-65,-40,72,-24,-74,12,-37,20,92,118,46,41,85,-85,78,-11,36,74,-99,127,103,-8,28,89,-91, 
  /* [6][0][][] */ 11,-52,103,68,-93,-69,-10,58,-21,-87,-2,-91,79,48,107,-127,35,-4,-6,94,-87,-125,101,52,-69,-89,-16,-67,-36,-122,38,-84,-96,-127,-53,-113,-18,30,-117,75,81,47,14,-23,-118,98,-94,-53,-86,10,-38,-76,50,-58,88,-33,0,-15,-74,107,-104,-5,62,-80,-60,59,92,-56,70,-13,-111,-14,49,-78,-98,-50,-86,-108,-66,-37,24,-35,35,-36,-77,-91,-46,-102,75,86,88,9,-59,-72,64,-37, 
  /* [7][0][][] */ 117,70,-30,-37,-64,104,-14,11,120,10,-83,13,56,-76,48,79,46,17,11,112,59,37,1,76,-57,107,43,58,-70,107,-12,36,28,28,68,103,-97,95,-2,-37,98,-70,92,69,46,6,95,-100,28,-43,-95,-68,-18,84,25,27,127,-86,8,-48,14,-9,80,-103,-61,-53,71,27,-100,13,71,90,83,34,65,63,-55,52,-87,51,96,-31,-11,-71,90,38,-100,95,89,16,88,65,-48,-39,17,-52, 
  /* [8][0][][] */ 3,39,-46,-95,56,23,-71,-32,11,24,53,88,-6,-47,-96,-68,-73,97,-62,11,27,-30,87,100,-105,89,32,75,-74,11,-92,116,90,-38,40,-8,110,21,-24,56,96,122,-127,-119,-17,-16,-35,114,28,-88,-65,34,-64,-1,-31,-117,56,99,-76,111,114,36,49,110,-37,-53,-29,99,-93,29,29,-3,68,91,9,32,-46,88,80,72,34,85,-126,-31,33,51,89,-35,43,-34,-86,93,-89,-103,-45,83, 
  /* [9][0][][] */ -6,3,102,34,67,-109,-61,-127,40,33,-18,36,-33,-84,-106,-32,2,-6,-104,-72,-1,88,-103,-103,105,-21,-15,21,-17,-63,-99,89,46,-8,19,-30,-76,3,-45,-44,39,-72,47,-93,69,11,-105,48,48,-26,-102,-54,63,-79,-78,92,69,-63,-14,-9,-90,92,73,-86,-93,-2,93,39,-47,89,99,-103,-1,69,-106,-99,-80,-121,-41,99,22,13,90,21,-45,-97,28,-23,88,24,-35,95,94,-5,17,-42, 
  /* [10][0][][] */ -53,78,99,-58,-9,112,109,42,35,46,23,-59,109,88,-24,13,-29,81,-93,-56,-15,32,58,-63,27,64,-103,-109,-41,89,-85,-78,92,108,127,83,-31,1,-25,40,-41,104,-94,-35,-91,-68,8,-60,-18,1,46,-14,68,17,-56,-29,-93,-7,22,-50,-2,86,110,47,127,-68,-89,-18,30,-7,-89,-61,97,56,-79,106,-17,79,74,27,85,1,69,75,-104,62,94,-31,39,11,0,-58,-42,-50,-33,-75, 
  /* [11][0][][] */ 120,5,-10,112,126,55,58,52,121,108,-67,127,5,-75,38,-62,-44,-98,70,46,37,77,31,-100,-103,-83,-4,74,85,0,37,-11,-79,-62,60,55,-52,73,-16,-49,-23,94,-54,9,-33,-60,-80,-85,49,106,119,36,-84,-95,28,32,-52,-45,-37,-76,-71,94,84,15,39,94,-49,34,96,71,-68,-60,52,100,-93,51,-61,46,-29,92,-96,-21,-54,-63,47,-86,18,-33,-89,-4,16,-86,-74,-31,-45,-43, 
  /* [12][0][][] */ 25,67,-49,10,99,17,-33,52,-77,77,-13,26,-35,21,61,-79,-92,-32,-43,-76,34,-6,20,109,-72,-40,119,-97,105,24,-28,126,-81,-63,-37,26,9,-80,-8,53,115,30,-95,-38,-14,-90,-29,123,-60,-117,-70,88,45,-2,-76,96,-10,-51,46,71,65,125,-6,62,126,43,-38,127,68,120,53,82,99,112,-11,-6,-33,51,-110,-88,-51,111,63,-18,-36,28,51,115,-91,-108,102,56,116,-12,42,72, 
  /* [13][0][][] */ 123,-64,114,108,105,122,88,81,76,-94,19,-23,102,84,77,-42,-116,-71,-61,35,77,-23,127,-46,-62,52,17,26,-82,-83,96,44,48,115,-13,48,-78,-26,36,72,-64,74,-37,15,-41,33,3,-24,20,111,-23,-124,-94,26,113,-79,-34,36,-23,-73,-22,124,-75,22,-44,-59,-87,96,-30,-8,108,7,-86,40,-70,-39,-104,75,95,-55,64,-95,112,6,-80,-108,97,120,-2,-45,-70,64,127,-52,88,-4, 
  /* [14][0][][] */ -55,-105,95,74,83,-36,-17,-98,-89,-25,65,90,-25,-83,-82,-81,-49,-60,6,28,-44,25,-4,68,-117,-66,-20,35,-108,-105,-69,32,105,-21,-30,10,104,110,43,-105,-12,-120,50,90,67,-117,69,-84,114,35,87,35,103,-33,-12,10,-40,14,45,86,-14,-77,-44,75,-82,-7,84,-106,-84,-81,-95,98,11,71,52,-74,53,-94,59,38,52,-28,-105,-57,-127,-105,-125,102,111,11,87,-43,92,99,-7,50, 
  /* [15][0][][] */ 4,-30,-36,65,85,-109,55,-108,65,-17,-78,-4,99,-5,-105,-120,75,2,-100,17,44,13,71,99,89,61,28,90,12,48,57,-117,-5,-4,-75,-15,-76,122,107,-83,12,117,-58,-32,14,-83,-59,-84,-17,-87,-14,36,-109,-113,-60,-20,64,42,-48,108,-52,-82,-5,99,-47,89,-83,-5,-73,-12,60,-85,8,-3,56,-116,-7,46,105,79,-92,50,-122,-57,-127,-39,-97,39,87,72,-123,-54,44,105,-119,123, 
  /* [16][0][][] */ -76,6,90,-66,31,92,-52,24,51,28,-98,54,-24,-51,-60,-56,86,72,63,53,99,70,-36,36,-22,43,-80,55,-102,4,29,5,-104,63,43,46,-43,59,-54,-79,30,-29,51,81,49,102,79,-10,-44,-100,-3,127,-44,113,56,32,21,71,74,14,106,92,34,53,41,3,-42,82,32,71,-35,-15,15,100,55,84,-11,74,-108,-16,6,-79,41,45,14,103,105,15,72,12,-17,93,54,-33,-85,36, 
  /* [17][0][][] */ 10,-108,9,53,-45,-97,-74,-89,17,-86,48,35,71,27,-106,26,24,38,71,89,-93,-36,-11,-48,6,41,-65,19,78,-49,-39,52,-45,-34,10,-6,-39,59,-89,-27,-93,-54,-26,-15,1,-11,60,-103,71,62,-17,5,-33,55,69,-84,-119,66,-97,-111,14,-86,52,66,-74,-66,28,-99,-100,-8,69,11,0,-127,-73,38,84,-36,22,-65,-7,-34,-71,-100,-123,46,39,-44,-5,54,-97,-108,-25,70,-8,-16, 
  /* [18][0][][] */ -102,94,105,-76,-14,-117,-112,1,-9,83,-112,-44,-43,29,55,-64,15,-29,111,-31,98,-48,16,-87,22,-97,-23,105,22,27,-4,37,41,-35,-116,-111,-38,52,-40,55,-43,-6,-55,-16,-121,10,21,-8,15,-21,69,26,-116,-13,0,80,-47,27,-22,-123,78,103,8,29,-74,-127,-38,83,63,-84,-78,104,-103,37,-94,-112,48,56,-7,-81,-62,-11,-27,-71,98,-39,65,62,-113,-81,-69,100,85,-57,47,-14, 
  /* [19][0][][] */ 15,33,77,35,58,-92,93,91,103,-75,35,-6,-101,32,-61,60,72,-111,109,55,-22,80,-55,13,83,-90,28,-72,-99,-127,-70,47,83,-89,31,-6,7,-72,-61,-108,47,-122,-90,10,-95,29,78,-98,-31,32,-47,54,-37,22,0,-13,23,98,4,-22,56,-61,99,57,-75,-4,-32,-5,-13,49,81,-54,-68,-122,-60,-85,-23,-123,14,110,59,-122,-35,86,-89,-6,17,-5,93,30,-7,65,-43,119,75,-51, 
  /* [20][0][][] */ -16,75,67,90,-96,91,16,50,22,3,-87,-5,-14,87,34,-74,-57,-40,-68,-38,22,-50,-77,-83,87,-81,-115,46,18,9,-46,114,97,40,-21,50,38,-27,-19,-118,-80,-25,-101,-108,-32,-60,-77,113,61,-127,-112,59,46,119,54,-7,95,68,113,92,115,-62,-64,-38,-35,-73,-59,12,-92,-91,-70,76,-71,-76,30,23,112,67,112,111,83,2,82,3,66,125,-4,81,21,101,27,59,14,25,-13,14, 
  /* [21][0][][] */ 107,82,86,-103,107,-81,75,27,2,-62,-75,37,10,46,-46,-92,-114,-36,36,-7,124,-49,81,-95,67,-87,-24,83,24,13,0,-25,4,26,-90,-117,127,104,-116,-37,-21,5,45,-14,-99,-86,-83,104,-57,-71,3,78,47,73,-91,33,-66,60,-54,124,65,-79,16,-8,96,37,-30,-74,-105,2,70,88,39,-21,82,74,-116,-24,76,120,22,107,47,-93,25,-100,67,-88,-105,91,122,-118,-47,-81,85,-30, 
  /* [22][0][][] */ 35,-50,-67,-88,82,-44,99,51,-82,86,-71,-114,108,-102,-101,-81,42,79,-102,-53,91,-69,31,25,90,-1,-102,97,-51,-70,-61,-97,44,60,20,16,7,-24,-58,-107,2,-17,7,87,57,-105,79,-17,-60,-73,12,-22,-63,-86,-41,32,-14,-27,-32,-27,107,-71,-69,-111,-57,21,-103,-41,110,101,-19,-1,-64,-5,60,-86,47,-38,67,92,101,-87,-68,-127,70,82,89,-30,-54,34,-59,55,19,23,-20,90, 
  /* [23][0][][] */ 69,-90,10,62,99,-94,2,-85,52,-67,83,75,25,-100,26,-37,99,-32,-97,103,95,-79,102,-27,-20,-8,94,26,74,53,78,-27,-38,48,25,37,104,-15,-98,14,-112,-12,26,-101,-56,-89,117,27,55,-112,-74,-66,84,-61,-39,91,-74,-10,89,46,-101,-82,-51,-7,42,44,-105,-102,68,-1,113,-63,2,-44,-33,-92,46,-7,98,116,-45,-47,34,-127,87,1,103,-24,-86,43,105,2,105,-49,-17,71, 
  /* [24][0][][] */ -57,-49,-91,-54,-71,-81,-61,-68,60,120,75,51,116,61,-25,-105,-61,40,31,-39,92,-73,-46,-25,41,-19,85,56,105,60,17,-46,-3,19,54,31,-36,-88,66,-7,-68,-107,109,9,33,-39,55,65,-97,-46,-14,-8,72,50,76,-57,-1,83,16,-1,85,4,33,93,-78,99,-34,-76,-83,68,-44,-17,-23,23,91,92,56,-52,-86,-69,-65,-84,-41,-127,-3,51,-16,-95,25,-96,12,-59,-7,28,-80,16, 
  /* [25][0][][] */ -71,-60,-73,-3,90,-57,-99,66,38,-91,-40,22,77,3,-94,-21,-56,56,32,-96,66,78,-10,-47,6,-42,-81,40,78,-76,43,114,87,-96,49,72,102,-72,-12,-6,-92,75,-85,5,101,31,74,32,-116,79,-65,-18,44,-25,-52,17,-18,59,-118,69,114,46,47,44,8,79,-12,-4,-78,14,-16,-103,44,-127,71,18,68,84,22,23,50,45,-26,48,-72,-54,-106,-93,-23,-36,102,29,-105,-17,-15,-91, 
  /* [26][0][][] */ 52,-108,-22,-13,-99,-6,-3,-14,-97,-127,114,102,-81,-40,4,-9,111,36,-71,-68,13,79,105,10,59,67,6,47,12,5,-91,0,-22,-60,-99,-104,-67,98,-47,100,-72,115,48,35,-72,81,-39,107,-16,38,-11,120,13,-38,4,-104,111,60,67,30,4,-94,75,-16,110,-20,-58,61,-89,73,93,99,82,-82,-82,18,49,-116,-96,11,-29,79,82,-39,91,12,-22,22,-76,116,15,16,-57,115,47,99, 
  /* [27][0][][] */ 6,4,-69,-110,-127,-75,-77,-24,40,92,32,-122,-34,51,77,-34,63,-21,60,-88,-98,6,-32,-29,-108,39,-115,-8,60,22,-40,-13,53,63,-97,-94,-93,-69,-120,86,-102,13,23,14,94,21,62,100,87,64,51,-79,-96,-92,-12,-39,95,-29,-111,-82,-61,-68,-40,48,33,-53,-118,101,44,5,-123,0,55,-54,-14,-93,44,-72,85,99,79,-32,110,-57,-79,-88,-38,37,-55,-8,-41,-58,50,13,76,53, 
  /* [28][0][][] */ 92,-9,91,44,-119,-74,-105,-82,-47,-112,55,62,-82,-86,4,102,88,104,-78,71,-35,25,-118,-82,-127,82,-88,-61,-73,-77,-4,-25,-113,16,82,75,-8,-117,-48,24,94,35,-94,40,-116,-12,18,49,3,-66,-88,-58,-92,19,45,39,54,-15,56,50,-18,-50,-107,1,57,72,-20,82,-80,17,-109,-53,71,27,-5,-109,-121,-75,-89,50,-76,-95,103,-65,63,-121,55,-92,-104,-68,-35,-71,-43,50,-118,-76, 
  /* [29][0][][] */ 50,58,56,-58,-97,12,-125,0,115,-23,-90,-101,108,-112,-59,-49,-107,109,30,-72,-80,-39,64,-1,-27,4,-54,-30,-114,-14,108,-4,52,-2,-89,-64,-13,117,-11,95,60,120,-50,87,-4,117,-62,-23,21,-7,60,-80,76,-106,115,45,-95,55,-39,117,-121,97,-96,-56,-68,-71,48,91,97,-97,38,-76,113,91,62,28,123,-75,-31,33,-7,-90,-13,-50,70,127,64,89,-38,104,72,82,-116,16,7,68, 
  /* [30][0][][] */ 26,44,-14,36,-50,14,-17,3,112,-4,49,-17,-60,34,58,53,-14,35,98,-49,69,-32,-47,6,-18,35,-53,83,12,-49,-52,16,-28,-37,-60,-15,20,51,22,5,109,32,-19,82,74,9,75,74,-9,83,34,9,77,9,11,77,-30,-36,3,11,-37,9,-22,0,-58,-59,-26,83,-23,66,51,-1,-62,127,66,-13,-24,-54,-26,-19,39,39,-53,54,-32,100,-40,121,30,-37,74,35,-7,32,13,16, 
  /* [31][0][][] */ 76,-94,31,93,46,58,-61,-103,-35,-21,-83,-88,94,-123,-52,106,-71,-93,35,43,60,32,-36,99,39,-114,30,36,-77,-75,44,101,16,18,-95,-13,92,-32,-70,-117,62,-69,-39,29,3,-58,-41,20,72,23,89,-32,-118,-56,-81,19,-122,62,0,105,-45,-5,88,-76,64,108,-50,-80,68,-127,-123,8,-99,-41,-1,5,-63,-49,45,85,-80,-47,54,85,51,94,-100,13,14,-55,-87,-58,10,96,-6,-29, 
};
const TfArray<4, int> tensor_dimension5 = { 4, { 32,1,1,96 } };
const TfArray<32, float> quant5_scale = { 32, { 0.0017463630065321922, 0.0020713917911052704, 0.0018312307074666023, 0.001791982096619904, 0.0017692875117063522, 0.0017651015659794211, 0.0018190472619608045, 0.001906345714814961, 0.0018214345909655094, 0.0019079400226473808, 0.001828456181101501, 0.0018419428961351514, 0.0017653765389695764, 0.0017698879819363356, 0.0018549208762124181, 0.0017546826275065541, 0.0019605630077421665, 0.0021594192367047071, 0.0018041048897430301, 0.001739887404255569, 0.0017599089769646525, 0.0017057626973837614, 0.0019644752610474825, 0.0019048096146434546, 0.0020182691514492035, 0.0019473746651783586, 0.0018317139474675059, 0.0018056073458865285, 0.0017862101085484028, 0.0017129670595750213, 0.0027989225927740335, 0.0018552684923633933, } };
const TfLiteAffineQuantization quant5 = { (TfLiteFloatArray*)&quant5_scale, (TfLiteIntArray*)&g0::quant4_zero, 0 };
const MODEL_SECTION(EI_MODEL_SECTION) ALIGN(16) int32_t tensor_data6[96] = { 1336, -71, 3687, 7126, 5732, -2637, 4716, -1430, -2273, -1058, 6868, -2957, 5484, 6992, 3135, 2937, -853, -636, -1769, 7103, 2027, -921, 2662, -692, -1479, 4175, 1884, 2414, 7911, 2453, 4665, 1334, 1474, 4709, 7438, 4241, -532, 4034, 2813, -5805, -252, 1692, -179, 1727, -1679, 511, -1560, 1110, -9276, 2259, 1186, -4882, 6776, -832, 2049, 1858, 1148, 3936, -906, -2853, 115, 2529, 407, 4477, 5961, 3457, 3994, 5940, 5987, -919, 2514, 6815, 3601, -1393, 5117, 6409, 903, -4469, 435, 1547, 9794, 2180, -801, -2639, 1460, 1007, 1797, -2118, 4415, -544, 4769, 1548, 84, -2986, -185, 1783, };
const TfArray<1, int> tensor_dimension6 = { 1, { 96 } };
const TfArray<96, float> quant6_scale = { 96, { 0.00015305243141483516, 0.00016760868311394006, 0.00015094340778887272, 0.00010720123827923089, 0.0001106922427425161, 0.00015634772717021406, 0.00012577968300320208, 0.00017831262084655464, 0.00017396929615642875, 0.00014990939234849066, 9.3347523943521082e-05, 0.0001471531722927466, 0.00010205188300460577, 8.6551728600170463e-05, 0.00010311189544154331, 0.0001354197011096403, 0.00020105976727791131, 0.00016356517153326422, 0.00016907918325159699, 8.6887928773649037e-05, 0.00021158097661100328, 0.00013879047764930874, 0.00013690868217963725, 0.00015588929818477482, 0.00016374560073018074, 0.00014577644469682127, 0.00015505905321333557, 0.00014090996410232037, 9.0996756625827402e-05, 0.00017314743308816105, 0.0001120904489653185, 0.00017257586296182126, 0.00018604424258228391, 0.00011891534086316824, 7.8503740951418877e-05, 0.00011676571739371866, 0.00019627605797722936, 0.00012446129403542727, 0.00013715107343159616, 9.1725465608760715e-05, 0.00018100262968800962, 0.00013749916979577392, 0.00020472546748351306, 0.00015413812070619315, 0.00014233414549380541, 0.00012853807129431516, 0.0001575266505824402, 0.00013440774637274444, 7.5555632065515965e-05, 0.00012321329268161207, 0.00021885802561882883, 9.965005301637575e-05, 0.0001103430477087386, 0.00019781821174547076, 0.00016175597556866705, 0.00013564294204115868, 0.00015616719610989094, 9.8439304565545171e-05, 0.00016638329543638974, 0.00011135030217701569, 0.00021970445232000202, 0.00010787355131469667, 0.00018869360792450607, 0.00014694985293317586, 0.00011397110210964456, 0.00013761880109086633, 9.6250849310308695e-05, 0.00012517513823695481, 0.000111483532236889, 0.00013758442946709692, 0.00019493904255796224, 0.00010020600166171789, 0.00012641058128792793, 0.00015765856369398534, 0.00013763159222435206, 0.00012384304136503488, 0.00011262809857726097, 0.00014338907203637064, 0.00017056608339771628, 0.00013390117965172976, 8.6266023572534323e-05, 0.00013646976731251925, 0.00014516057854052633, 0.00013671294436790049, 0.00013604635023511946, 0.00012717583740595728, 0.00015471805818378925, 0.00017423584358766675, 0.00014582672156393528, 0.00017274900164920837, 0.00012678792700171471, 0.00013709884660784155, 0.00013853785640094429, 0.0001451293210266158, 0.00020336994202807546, 0.00014286786608863622, } };
const TfArray<96, int> quant6_zero = { 96, { 0,0,0,0,0,0,0,0,0,0,0,0,0,0,0,0,0,0,0,0,0,0,0,0,0,0,0,0,0,0,0,0,0,0,0,0,0,0,0,0,0,0,0,0,0,0,0,0,0,0,0,0,0,0,0,0,0,0,0,0,0,0,0,0,0,0,0,0,0,0,0,0,0,0,0,0,0,0,0,0,0,0,0,0,0,0,0,0,0,0,0,0,0,0,0,0 } };
const TfLiteAffineQuantization quant6 = { (TfLiteFloatArray*)&quant6_scale, (TfLiteIntArray*)&quant6_zero, 0 };
const MODEL_SECTION(EI_MODEL_SECTION) ALIGN(16) int8_t tensor_data7[96*1*1*16] = { 
  /* [0][0][][] */ -9,93,-71,27,35,-29,86,58,-48,10,29,-82,70,127,-62,18, 
  /* [1][0][][] */ -17,1,-55,-26,-12,43,18,-127,27,-51,-28,-54,-12,-48,-47,-3, 
  /* [2][0][][] */ -16,-22,36,89,30,46,-112,127,-10,-2,60,-67,-31,-84,-38,49, 
  /* [3][0][][] */ 87,-99,77,-8,-11,-36,-35,127,-31,69,74,47,-6,71,0,19, 
  /* [4][0][][] */ -49,-29,-8,50,-95,14,-34,-119,-1,5,40,-14,39,67,99,127, 
  /* [5][0][][] */ 127,25,-21,-33,-77,22,17,63,16,-18,48,84,124,15,-78,-2, 
  /* [6][0][][] */ 8,-32,-64,-61,-93,13,-5,-35,-68,-33,-17,27,99,91,127,8, 
  /* [7][0][][] */ -55,35,-28,-75,-6,-52,-78,23,-105,58,-67,-70,-127,-20,20,91, 
  /* [8][0][][] */ 48,39,76,14,42,17,72,6,66,-25,40,10,-127,-28,-74,9, 
  /* [9][0][][] */ -35,64,28,-47,-31,-16,28,-14,-35,50,-38,16,46,127,27,27, 
  /* [10][0][][] */ 74,57,-53,53,-36,-25,59,-49,-83,-44,-52,-112,-127,-86,11,123, 
  /* [11][0][][] */ 46,5,58,2,-13,-36,-1,99,-91,23,-29,-2,-22,4,61,127, 
  /* [12][0][][] */ -58,-33,6,-5,16,-11,124,40,-61,41,13,-10,-13,106,-72,127, 
  /* [13][0][][] */ -8,61,27,36,126,51,111,115,-51,127,-75,-71,46,119,-125,-15, 
  /* [14][0][][] */ -127,119,3,-17,-10,0,56,2,-43,46,117,-14,-92,37,-54,56, 
  /* [15][0][][] */ -7,-13,-127,-45,82,-34,-80,-41,-15,-29,-24,-71,-12,-90,-46,32, 
  /* [16][0][][] */ 118,-14,11,-11,33,-18,38,-26,-33,5,127,47,50,-3,-18,23, 
  /* [17][0][][] */ 19,13,-23,-94,-1,-58,107,-127,10,-31,-61,28,33,52,19,33, 
  /* [18][0][][] */ 31,127,-11,-35,68,-71,-23,-53,-27,117,-27,2,-34,38,-2,-38, 
  /* [19][0][][] */ -77,-125,117,-86,24,-127,25,-33,43,62,107,104,27,7,57,-13, 
  /* [20][0][][] */ -18,98,59,8,7,-12,27,-29,67,-6,101,-21,-127,-26,-83,-12, 
  /* [21][0][][] */ -64,34,28,27,53,46,72,57,-127,55,-40,13,-29,27,-56,-23, 
  /* [22][0][][] */ 5,-86,43,16,9,-127,105,11,15,-33,-23,-56,43,-69,-65,-36, 
  /* [23][0][][] */ -68,-100,46,75,31,-8,18,-47,23,-34,76,-3,3,78,104,127, 
  /* [24][0][][] */ 3,2,23,71,53,20,-52,-127,58,10,-41,17,0,0,-21,-31, 
  /* [25][0][][] */ -7,45,21,-46,-23,5,10,-30,-33,54,-54,-14,38,127,46,-10, 
  /* [26][0][][] */ -69,73,3,24,30,-91,-5,-36,15,22,13,68,12,6,-92,127, 
  /* [27][0][][] */ -9,-127,-51,8,-55,93,-2,-69,33,-49,48,-31,26,-61,-104,-31, 
  /* [28][0][][] */ -39,-2,38,79,21,6,-38,-127,-117,55,112,-8,76,17,-51,-17, 
  /* [29][0][][] */ -127,94,-21,-26,-32,6,-113,-69,-41,-25,2,-3,11,-47,-119,68, 
  /* [30][0][][] */ 49,71,-51,94,-127,-99,-84,-15,-48,10,14,-117,126,54,-26,108, 
  /* [31][0][][] */ 127,28,-61,-35,-61,14,97,26,-53,-27,57,48,39,14,-24,14, 
  /* [32][0][][] */ -24,-21,127,3,-21,66,67,15,-21,-18,-17,20,5,63,63,40, 
  /* [33][0][][] */ -1,30,-56,-52,-27,24,114,25,-5,-8,25,-63,90,127,-55,38, 
  /* [34][0][][] */ -93,-36,104,23,29,-67,122,-16,-127,31,51,-39,61,67,-68,-28, 
  /* [35][0][][] */ -7,12,-53,9,-80,111,-32,-18,-17,127,6,91,-62,84,10,48, 
  /* [36][0][][] */ -8,-69,127,-49,-54,17,-38,-11,16,24,-43,80,4,-84,-44,47, 
  /* [37][0][][] */ 103,-5,77,-18,114,-84,-51,40,-53,122,-79,-16,-102,-56,127,-39, 
  /* [38][0][][] */ 11,50,23,-127,-31,-58,-124,92,-127,83,-75,-56,-82,-101,-125,121, 
  /* [39][0][][] */ -74,19,-59,-29,-84,-78,71,15,-127,-40,13,82,34,-2,2,44, 
  /* [40][0][][] */ 127,15,14,-79,-64,7,13,-47,-23,-37,-59,-75,22,19,41,16, 
  /* [41][0][][] */ 91,-77,-53,-44,-4,-6,-48,-21,60,-26,2,-56,127,-68,52,-34, 
  /* [42][0][][] */ -18,-90,-39,127,4,-99,-106,17,13,8,9,46,-77,66,-58,-2, 
  /* [43][0][][] */ -71,-32,-45,-109,-59,9,3,66,49,-127,-53,25,-33,-55,-10,69, 
  /* [44][0][][] */ -38,36,42,-46,-33,-17,24,127,113,-84,88,112,121,37,-9,1, 
  /* [45][0][][] */ 36,72,-69,81,127,-78,-41,-66,102,-69,53,-65,-29,0,-63,48, 
  /* [46][0][][] */ -30,-40,10,-10,96,-28,27,19,-5,127,-29,-116,38,63,-52,80, 
  /* [47][0][][] */ 87,-35,-32,-13,89,-12,-45,-62,-1,127,-39,34,-11,-112,-75,-6, 
  /* [48][0][][] */ 12,28,-13,-121,-8,-54,117,-127,5,2,-36,52,52,64,8,42, 
  /* [49][0][][] */ -56,127,-70,34,41,-53,74,64,-36,36,49,-105,-33,93,126,-91, 
  /* [50][0][][] */ 4,36,-15,6,-127,1,-67,-47,46,75,28,25,-40,-29,2,32, 
  /* [51][0][][] */ 127,-44,-52,-13,-40,91,-95,-45,51,-16,-46,70,-30,-70,1,36, 
  /* [52][0][][] */ -32,-57,50,62,-47,-127,-127,-14,-47,-45,-7,-54,16,-58,-14,97, 
  /* [53][0][][] */ 14,107,58,-127,4,111,85,-12,-14,-15,-4,-36,83,-109,3,49, 
  /* [54][0][][] */ 41,127,7,-17,-1,-93,-102,48,12,-36,-49,122,79,74,29,53, 
  /* [55][0][][] */ -49,-13,52,22,44,-40,108,87,-80,2,26,15,127,58,-18,5, 
  /* [56][0][][] */ 127,21,15,26,-33,102,-54,-79,-16,36,-90,10,-58,82,-9,23, 
  /* [57][0][][] */ -49,-39,-42,-32,-75,-118,60,-33,-127,-26,54,51,17,51,-23,59, 
  /* [58][0][][] */ 42,-54,64,20,4,-64,-24,5,28,-8,-127,-30,27,-34,-40,47, 
  /* [59][0][][] */ 83,19,-127,100,4,33,88,-30,-78,-52,25,-108,-116,-63,30,108, 
  /* [60][0][][] */ 2,37,-6,15,-10,-22,-28,0,-32,-78,54,121,-40,-127,-33,-13, 
  /* [61][0][][] */ -44,21,78,-96,-75,56,-2,126,-31,-84,58,60,83,20,8,127, 
  /* [62][0][][] */ 68,41,-11,-127,-21,3,12,-38,-10,39,-29,46,28,-10,-92,-64, 
  /* [63][0][][] */ -5,-26,1,-6,-67,-70,-64,10,-77,-1,-26,-18,127,19,44,1, 
  /* [64][0][][] */ 16,-1,-9,53,-96,-35,-20,-69,46,127,39,2,40,-29,-52,107, 
  /* [65][0][][] */ -35,5,-16,-15,-75,64,22,-21,44,-98,97,-57,67,76,-127,63, 
  /* [66][0][][] */ -122,91,-86,-81,31,-25,-114,-61,-108,112,95,3,-127,-48,53,53, 
  /* [67][0][][] */ 7,-28,-127,-108,64,79,5,-27,-29,0,38,-27,20,42,23,37, 
  /* [68][0][][] */ 49,15,-7,-40,-73,34,20,38,-61,80,127,-12,-18,-32,-125,2, 
  /* [69][0][][] */ 73,-108,53,-49,13,-116,-34,127,-3,72,88,91,-25,83,-35,2, 
  /* [70][0][][] */ 40,9,109,45,77,-26,127,16,34,29,-52,32,-66,74,-80,41, 
  /* [71][0][][] */ 12,36,101,-75,-127,-78,15,10,-23,-17,17,-108,-73,-5,20,25, 
  /* [72][0][][] */ -48,-92,24,-119,70,-10,3,46,-69,18,-119,-16,54,127,-55,124, 
  /* [73][0][][] */ 12,20,47,-8,112,-88,-50,4,-36,105,-78,33,-81,-49,127,-11, 
  /* [74][0][][] */ -90,1,-114,-58,69,-45,-42,19,-70,-4,-127,-37,-40,-67,-24,53, 
  /* [75][0][][] */ 85,-24,49,-45,14,-1,-127,-25,-9,-86,62,2,0,-6,-8,-4, 
  /* [76][0][][] */ 9,-61,-31,103,35,79,87,-60,81,-127,64,115,37,-84,-71,37, 
  /* [77][0][][] */ -34,-33,127,-21,34,-21,-31,-106,21,17,20,83,43,47,15,-5, 
  /* [78][0][][] */ -44,-2,15,-30,-8,-61,24,-12,26,-11,23,-85,-100,-72,-127,-47, 
  /* [79][0][][] */ -125,-103,-20,34,127,17,-28,18,41,36,-13,59,-36,-87,-99,-14, 
  /* [80][0][][] */ 13,-85,50,127,-23,-21,-107,69,2,10,38,-11,-85,-26,-2,27, 
  /* [81][0][][] */ 99,64,-19,76,-6,42,21,127,10,24,115,55,112,45,56,-18, 
  /* [82][0][][] */ -54,7,22,-30,40,-127,-121,-83,0,82,-52,-35,-30,109,-71,-22, 
  /* [83][0][][] */ 123,-23,84,-40,-42,-5,-127,-7,21,-117,10,-59,-11,-12,5,-32, 
  /* [84][0][][] */ 25,-67,-91,34,127,34,41,29,-105,6,-115,-27,39,-42,-63,4, 
  /* [85][0][][] */ 18,105,50,-60,88,-7,40,-125,127,-42,43,-9,95,-94,26,-6, 
  /* [86][0][][] */ 121,-31,127,70,-14,-63,83,43,-59,-52,-93,-49,32,18,-70,4, 
  /* [87][0][][] */ 3,14,11,-72,68,-23,-44,10,38,-37,64,-37,-78,-127,1,12, 
  /* [88][0][][] */ -60,-28,35,-4,18,27,-67,-46,-2,8,-65,-127,-48,-41,-12,-15, 
  /* [89][0][][] */ -65,10,24,-58,26,2,-127,21,86,18,-67,-11,-18,-81,-40,-26, 
  /* [90][0][][] */ -18,-23,-34,-89,127,17,-62,43,40,66,37,-9,37,29,-80,-9, 
  /* [91][0][][] */ -36,-60,27,67,-55,-14,6,81,-36,-88,7,-64,-3,49,38,127, 
  /* [92][0][][] */ -24,69,0,-15,-21,48,-93,45,-34,-10,55,-4,-33,127,45,28, 
  /* [93][0][][] */ -6,80,-47,-66,67,83,-81,8,65,64,64,47,-127,20,-35,67, 
  /* [94][0][][] */ 14,60,96,17,-127,-32,10,-6,22,-1,25,-23,-54,-12,9,-28, 
  /* [95][0][][] */ 8,36,45,4,127,-29,-81,55,28,0,-72,104,-8,-13,106,-52, 
};
const TfArray<4, int> tensor_dimension7 = { 4, { 96,1,1,16 } };
const TfArray<96, float> quant7_scale = { 96, { 0.0019582905806601048, 0.0021445364691317081, 0.0019313058583065867, 0.0013716291869059205, 0.0014162962324917316, 0.0020004536490887403, 0.0016093385638669133, 0.002281492343172431, 0.0022259198594838381, 0.0019180757226422429, 0.0011943723075091839, 0.0018828101456165314, 0.0013057437026873231, 0.0011074207723140717, 0.0013193064369261265, 0.0017326816450804472, 0.0025725397281348705, 0.0020928001031279564, 0.0021633512806147337, 0.0011117224348708987, 0.0027071575168520212, 0.0017758103786036372, 0.0017517330124974251, 0.0019945881795138121, 0.0020951086189597845, 0.0018651951104402542, 0.0019839652813971043, 0.0018029289785772562, 0.0011642944300547242, 0.0022154042962938547, 0.0014341861242428422, 0.0022080910857766867, 0.0023804176598787308, 0.001521509955637157, 0.0010044475784525275, 0.0014940057881176472, 0.002511332742869854, 0.0015924699837341905, 0.0017548343166708946, 0.0011736182495951653, 0.0023159107659012079, 0.0017592882504686713, 0.0026194420643150806, 0.0019721819553524256, 0.0018211512360721827, 0.0016446318477392197, 0.0020155378151684999, 0.0017197337001562119, 0.00096672680228948593, 0.001576501876115799, 0.0028002667240798473, 0.0012750125024467707, 0.0014118283288553357, 0.0025310644414275885, 0.0020696516148746014, 0.001735537895001471, 0.0019981437362730503, 0.0012595211155712605, 0.0021288576535880566, 0.0014247160870581865, 0.0028110966086387634, 0.0013802313478663564, 0.002414315938949585, 0.0018802088452503085, 0.001458248938433826, 0.0017608188791200519, 0.0012315200874581933, 0.0016016034642234445, 0.0014264207566156983, 0.0017603791784495115, 0.0024942257441580296, 0.0012821258278563619, 0.001617410802282393, 0.0020172256045043468, 0.0017609825590625405, 0.0015845594462007284, 0.0014410653384402394, 0.0018346490105614066, 0.002182376105338335, 0.0017132522771134973, 0.0011037652147933841, 0.0017461171373724937, 0.0018573151901364326, 0.0017492285696789622, 0.0017406995175406337, 0.001627202145755291, 0.0019796022679656744, 0.00222933036275208, 0.0018658384215086699, 0.0022103062365204096, 0.0016222390113398433, 0.001754166092723608, 0.0017725781071931124, 0.0018569153035059571, 0.0026020982768386602, 0.0018279801588505507, } };
const TfLiteAffineQuantization quant7 = { (TfLiteFloatArray*)&quant7_scale, (TfLiteIntArray*)&g0::quant6_zero, 0 };
const MODEL_SECTION(EI_MODEL_SECTION) ALIGN(16) int32_t tensor_data8[16] = { 11525, 15625, -2489, 2180, 1106, 7395, 1320, 2675, 18697, -4619, -7844, 7757, -16380, 11001, 1651, 12277, };
const TfArray<1, int> tensor_dimension8 = { 1, { 16 } };
const TfArray<16, float> quant8_scale = { 16, { 3.7286583392415196e-05, 6.7604807554744184e-05, 4.2188316001556814e-05, 6.8230510805733502e-05, 6.3846848206594586e-05, 8.9892280811909586e-05, 6.4958461734931916e-05, 6.1557999288197607e-05, 9.4606213679071516e-05, 6.8405366619117558e-05, 5.6644163123564795e-05, 6.367173045873642e-05, 6.9174289819784462e-05, 8.4419007180258632e-05, 9.1932452050969005e-05, 7.0057081757113338e-05, } };
const TfArray<16, int> quant8_zero = { 16, { 0,0,0,0,0,0,0,0,0,0,0,0,0,0,0,0 } };
const TfLiteAffineQuantization quant8 = { (TfLiteFloatArray*)&quant8_scale, (TfLiteIntArray*)&quant8_zero, 0 };
const MODEL_SECTION(EI_MODEL_SECTION) ALIGN(16) int8_t tensor_data9[16*1*1*96] = { 
  /* [0][0][][] */ -118,43,51,-31,-76,-25,-66,6,-58,31,1,-33,13,57,44,-32,36,28,115,26,33,-89,127,87,74,41,23,36,-71,-124,-114,16,-39,-44,40,40,4,43,-1,40,-35,17,-101,41,-83,-23,-11,124,-23,27,-69,-15,-16,-13,53,-71,-115,18,-47,95,65,19,15,12,-21,-96,-61,56,-34,-64,13,14,-7,7,-106,-69,-27,34,-93,-16,-54,97,115,-91,-17,43,16,62,49,22,0,-15,-60,-57,-98,34, 
  /* [1][0][][] */ 43,19,19,-60,-51,-16,-7,12,-14,29,65,-50,2,-14,-71,-34,-2,1,-72,24,3,-89,-2,47,-3,-59,0,-57,61,-105,107,-67,68,24,-24,58,25,79,-13,-42,24,29,-6,10,8,55,-127,-50,-52,-49,-25,-39,38,-48,-35,33,19,5,-44,21,16,51,-2,-96,-7,-25,-62,-9,13,-10,-82,2,-48,-14,10,-81,15,25,16,-77,-13,-25,-81,-27,14,-47,-17,17,-73,6,-48,57,13,49,-66,50, 
  /* [2][0][][] */ 82,-41,32,37,8,-83,74,0,-16,-20,-24,-14,-78,-38,22,-34,-115,-55,-36,56,-5,-41,-33,31,-11,-83,-2,-14,-39,55,-65,121,-68,127,-32,17,-3,-29,-24,-13,-97,70,73,0,-67,-2,-12,-16,33,-3,-24,-47,57,-14,-29,80,36,-6,59,-3,-3,44,-47,9,68,26,-6,-14,15,53,-46,-15,48,41,86,36,36,-87,91,69,79,-18,-56,31,-53,33,13,77,4,-5,-39,27,-37,65,-8,27, 
  /* [3][0][][] */ -3,-10,-27,16,6,-18,4,-64,-23,69,44,60,17,-1,-55,39,15,-34,34,14,15,127,29,-41,11,27,-20,2,67,-24,69,-21,-15,40,-18,-28,28,46,39,8,-88,-30,-48,32,-34,37,28,-4,-20,-47,-4,-32,54,-88,-29,-53,13,87,-27,-6,-8,-8,-35,-5,28,43,-45,6,-13,-9,16,-59,-37,-50,30,-12,19,-6,-41,-39,-30,-4,-63,15,-8,-53,47,-27,10,31,29,-27,53,25,-37,78, 
  /* [4][0][][] */ 37,6,-63,16,33,18,-44,12,-36,92,102,-18,-22,10,-3,-60,19,6,-35,45,28,-69,47,86,-60,6,-127,21,-43,-70,12,26,-58,-45,7,69,13,47,13,28,-49,-44,43,-17,-16,10,-35,60,-49,64,3,26,32,-19,-75,25,54,-15,-8,-6,41,-19,37,14,-46,1,-46,15,-34,32,-51,65,36,-69,-35,-48,46,-47,-39,-1,-41,95,-80,-4,-36,11,21,-62,60,34,37,16,-67,-28,26,28, 
  /* [5][0][][] */ -66,24,43,-18,60,-17,63,-25,-9,30,-3,-34,27,-32,-18,-37,1,-31,49,26,-100,-31,-87,39,-30,-5,46,10,46,-68,-11,51,58,115,-12,34,-5,27,30,-20,-23,95,71,-11,-7,58,33,8,1,7,-26,24,0,-35,28,-92,40,-46,-66,-61,60,80,-39,-5,77,-46,-74,-56,-38,-21,-51,6,-20,15,-31,-48,26,-30,-42,-24,127,-29,23,-78,-91,26,26,-14,-41,48,23,8,-31,21,-6,89, 
  /* [6][0][][] */ 37,-14,-78,39,-47,-108,98,78,-55,70,-21,65,-127,-62,60,48,-8,-47,-3,8,-20,-13,-58,-60,-53,33,72,31,27,32,79,-59,10,9,10,-70,3,-7,33,59,11,12,-49,-38,3,-55,-58,17,31,-119,-22,68,39,7,-19,-53,76,36,11,-5,-110,37,-90,-8,26,-8,2,47,39,21,4,-47,-39,17,105,30,67,-21,34,-57,-16,-47,-81,64,18,-58,38,16,-46,61,27,42,-11,31,-23,103, 
  /* [7][0][][] */ 39,81,-38,-57,-19,-6,34,8,-55,30,-51,-56,-22,13,18,-5,-47,-44,-38,57,-8,127,19,35,-1,0,15,33,48,43,69,-33,60,32,-27,8,4,-12,4,39,-63,2,10,-56,27,-48,71,-23,38,-72,-72,-20,-48,-1,-7,-6,30,13,-98,11,-12,106,18,-16,-23,5,-53,22,-38,-10,-114,34,18,68,-26,37,-53,56,12,-75,-20,-45,67,-83,35,-19,-15,3,-9,64,-79,50,40,-32,-55,2, 
  /* [8][0][][] */ -1,78,-59,36,-25,-34,-78,32,-90,-16,11,2,-54,35,25,89,12,-31,4,11,47,-17,-11,-8,-26,78,4,20,-10,-11,-44,-20,-15,-47,-34,-62,-43,38,39,7,-14,-33,26,26,-44,-32,-1,-9,-20,-13,36,68,-11,-34,-63,97,-27,42,-19,-40,-46,4,28,54,-22,-78,-46,0,-22,14,1,25,-32,-50,-118,-18,-33,35,-91,-55,-26,8,-38,-37,-21,-12,24,26,15,83,-55,-2,-101,-127,6,-43, 
  /* [9][0][][] */ -21,21,-58,49,-37,-28,62,50,-15,32,-31,90,-15,-27,29,127,2,3,77,12,8,30,46,-91,-43,-12,17,-6,6,-30,46,41,-36,-4,-1,-126,29,-27,-23,-19,-4,16,44,-40,-6,-1,21,12,29,80,37,-6,-48,-69,-8,3,-12,-16,88,-14,-62,61,-71,-29,74,4,-15,-4,-89,23,41,16,-2,84,-15,-23,-35,10,-13,7,46,-36,57,1,42,-5,-13,-32,-62,-2,-4,-6,74,32,-31,-7, 
  /* [10][0][][] */ 64,8,-31,-3,-41,-22,60,-2,2,-38,-26,-9,-75,-20,7,-11,-80,-51,22,13,28,49,36,-1,-52,75,32,-4,-56,-88,-28,-22,66,-41,42,4,70,-94,87,125,29,-66,6,-11,-18,-92,-1,49,29,80,-56,-48,-5,39,3,49,9,-69,92,54,-5,57,-71,-23,-19,-43,25,42,-2,-32,-13,18,127,36,33,-78,11,-60,83,6,-56,24,29,27,-19,8,3,44,-49,-42,26,47,58,71,-18,-2, 
  /* [11][0][][] */ -60,-35,48,-70,25,-7,-40,-53,49,-53,3,5,-11,11,6,12,-68,-14,63,3,-59,23,-77,-95,4,27,-51,56,45,-67,42,-34,13,-6,32,-21,-81,19,-124,2,-74,57,-32,50,17,23,-9,-37,32,-40,-58,-53,24,22,92,-64,-30,-85,12,-61,-23,-55,-22,-127,13,-57,77,84,117,5,78,-27,-28,-21,74,-43,96,53,33,65,27,-4,-10,81,104,3,-13,-32,-71,-82,-10,23,52,43,60,73, 
  /* [12][0][][] */ 37,-23,14,-38,26,127,-19,34,40,47,-12,56,32,45,22,2,-84,33,25,58,119,16,91,-76,28,15,-85,-72,-24,77,7,-4,22,-14,10,-51,52,-17,-34,-44,42,-36,49,37,-19,38,15,-10,-71,19,13,20,-20,-9,4,25,-48,56,30,60,35,-93,0,-115,-20,120,0,-52,-27,-56,72,-10,4,15,0,50,-22,38,-51,8,-36,24,120,24,16,100,-40,-73,70,-15,-99,50,95,18,4,-110, 
  /* [13][0][][] */ -16,41,2,-35,-42,-5,-9,-40,-3,-59,-40,-70,75,-106,-37,-72,-30,-60,-76,-19,-103,-15,32,92,-48,-4,100,15,17,-44,51,35,2,-7,-103,106,-30,-61,37,-62,127,-3,0,-3,1,-90,68,-35,73,-15,-27,25,36,14,-12,75,54,-62,-19,-3,55,47,-13,-92,-15,50,-18,17,-93,-39,-71,-31,-45,24,-32,-89,-119,7,77,97,-29,53,31,-86,86,54,25,-12,-20,-47,-14,7,-38,22,1,-16, 
  /* [14][0][][] */ 3,16,-80,-32,96,83,-75,-2,36,-32,80,-13,6,-31,-31,-54,-59,36,35,127,22,-29,-25,12,8,32,-22,64,16,3,-27,16,66,8,-35,5,-12,63,61,17,49,17,26,24,-4,-43,41,-26,22,-8,-14,-17,34,4,-25,23,23,65,-97,-16,-9,-68,-30,-84,18,-51,-50,10,-53,59,-17,51,-10,-26,-41,-39,51,-2,-70,-44,43,11,9,-16,-34,34,-12,-23,-25,72,68,24,-18,-49,-63,-55, 
  /* [15][0][][] */ -87,-31,54,-54,7,-20,-46,-104,-16,1,-6,75,20,-20,36,89,-122,-54,9,-80,16,-15,19,-94,43,-12,46,-60,-73,-123,-72,25,-49,49,86,-107,-20,-50,40,-24,-7,-18,35,-43,6,4,79,95,-43,-7,30,-51,-28,70,2,-61,-111,-32,127,17,-21,32,-112,18,-86,12,12,9,26,-80,82,-56,77,-34,-23,-37,-21,14,87,22,-34,71,56,32,15,6,-123,10,-16,-92,-76,20,62,-23,-4,52, 
};
const TfArray<4, int> tensor_dimension9 = { 4, { 16,1,1,96 } };
const TfArray<16, float> quant9_scale = { 16, { 0.0015846798196434975, 0.0028732041828334332, 0.0017930034082382917, 0.0028997967019677162, 0.0027134909760206938, 0.0038204218726605177, 0.0027607346419245005, 0.0026162147987633944, 0.0040207640267908573, 0.0029072279576212168, 0.0024073768872767687, 0.0027060485444962978, 0.0029399071354418993, 0.0035878077615052462, 0.003907129168510437, 0.0029774259310215712, } };
const TfLiteAffineQuantization quant9 = { (TfLiteFloatArray*)&quant9_scale, (TfLiteIntArray*)&g0::quant8_zero, 0 };
const MODEL_SECTION(EI_MODEL_SECTION) ALIGN(16) int32_t tensor_data10[96] = { 702, 2482, -3425, -4765, -1484, 4240, -3281, 505, -1337, -1874, 9453, -2323, 121, 13304, 8405, -6388, 16990, 1163, -3284, -22, 101, -4702, 2927, -1410, 323, -5706, -1610, -4575, 454, -7752, -3088, 531, 8443, -1583, -1165, -243, -2174, -2247, -1184, 6298, -713, -135, -238, -6357, 13502, 11358, 3933, 12100, -1437, 8259, 12899, -1703, -186, 2835, 366, 9837, -487, -1084, 16380, 3604, 9019, 13301, 7224, -7641, -1665, -575, -1512, 1492, -3362, -2308, -1193, 4124, 12791, 409, -1927, 8122, 1426, 2168, 13075, -2486, 158, 13094, 423, 591, 18079, 884, -2066, -3246, 5655, -5576, 18125, 805, -3781, 28, -4711, -3204, };
const TfArray<96, float> quant10_scale = { 96, { 0.00024553333059884608, 0.00020687615324277431, 0.00014162583102006465, 0.00017095047223847359, 0.00023398791381623596, 0.00032251921948045492, 0.00031160310027189553, 0.00022781627194490284, 0.00031036962172947824, 0.00015919623547233641, 0.00011645063932519406, 0.00030660018092021346, 0.00026122698909603059, 0.00011248864757362753, 0.00014085427392274141, 0.00013579642109107226, 0.00010636461956892163, 0.00025645497953519225, 0.00023955544747877866, 0.00015040756261441857, 0.00015688214625697583, 0.00033435900695621967, 0.00034433481050655246, 0.00024270905123557895, 0.00075179769191890955, 0.00013400807802099735, 0.00026979990070685744, 0.00013681651034858078, 0.00021059287246316671, 9.4321469077840447e-05, 0.0003647911362349987, 0.00021727888088207692, 0.00019851706747431308, 0.00016788746870588511, 0.00024389821919612586, 0.00024907349143177271, 0.00017131536151282489, 0.00028933346038684249, 0.00029257495771162212, 0.00014789716806262732, 0.00023671294911764562, 0.00020911678439006209, 0.00022718854597769678, 0.00011283732601441443, 9.3203794676810503e-05, 0.00012494299153331667, 0.00019567216804716736, 0.00010306244803359732, 0.00018828028987627476, 0.0001189343529404141, 0.00010282648145221174, 0.00018280574295204133, 0.00019394277478568256, 0.00019474078726489097, 0.00026513164630159736, 0.00014927850861568004, 0.00019118656928185374, 0.00023700110614299774, 0.00013598408258985728, 0.00011556865501916036, 0.00013469562691170722, 0.0001470984861953184, 0.00014844685210846364, 0.00011423743126215413, 0.00020925211720168591, 0.00043015065602958202, 0.00042619259329512715, 0.00022716252715326846, 0.00023013232566881925, 0.00024156010476872325, 0.0002864588750526309, 0.00015368466847576201, 0.00010683949949452654, 0.00022210172028280795, 0.00028209452284500003, 0.00015059199358802289, 0.00016795577539596707, 0.00018012431974057108, 0.00011743178038159385, 0.0003645268443506211, 0.0002837979409378022, 0.00010042153735412285, 0.00024053691595327109, 0.00019341737788636237, 9.9649216281250119e-05, 0.00022970822465140373, 0.00015552312834188342, 0.00018397145322524011, 0.00018924457253888249, 0.00015573060954920948, 7.6792668551206589e-05, 0.00034385084290988743, 0.00028156628832221031, 0.00025234778877347708, 0.00014396343613043427, 0.00032882319646887481, } };
const TfLiteAffineQuantization quant10 = { (TfLiteFloatArray*)&quant10_scale, (TfLiteIntArray*)&g0::quant6_zero, 0 };
const MODEL_SECTION(EI_MODEL_SECTION) ALIGN(16) int8_t tensor_data11[1*3*3*96] = { 
  /* [0][0][][] */ 8,105,7,17,-27,0,43,28,73,-73,-109,29,-19,-22,20,-31,-127,8,3,7,45,58,53,96,23,-19,-46,15,-32,32,31,-30,-57,7,-34,111,7,60,11,10,35,-30,9,43,-104,-39,-5,-42,-22,-56,-39,-5,28,34,-38,7,-85,-65,-76,-127,-127,-12,-127,-23,-14,39,26,-12,-24,17,35,-5,-36,21,35,9,1,-49,-86,32,10,-60,55,-11,-26,-46,-13,31,-127,6,-110,25,81,-4,53,2, -37,-67,13,76,-3,82,-9,2,56,29,-127,44,-38,-43,-116,127,-119,63,32,63,127,26,100,127,36,15,14,60,-18,127,7,-127,70,98,11,39,102,127,-11,-127,127,-7,109,127,-41,-93,127,-84,-1,-98,-107,-45,36,127,-14,-127,16,29,-127,-60,-9,-127,-39,112,-26,67,127,-22,-3,127,127,-1,-64,30,-40,-84,11,-82,-86,127,-4,-49,127,-79,-127,-42,117,76,80,98,-107,-9,127,-36,127,38, 13,-127,-14,19,-20,-11,-5,32,43,60,-87,0,-15,16,20,-65,-66,8,8,-4,38,49,36,82,23,-45,44,36,6,26,6,-51,-43,-80,-34,73,22,23,25,45,0,55,-22,35,-40,-30,-9,11,5,-40,11,-10,5,-9,9,13,34,-80,-12,-65,-122,25,-106,-22,43,20,-39,-8,-25,-20,22,-9,-20,-42,8,11,27,-27,-45,-9,-12,-71,19,9,23,-28,-5,-10,-109,-25,-55,23,34,42,15,-4, 
  /* [0][1][][] */ 87,7,57,100,5,-55,127,38,-22,-127,-78,127,-3,-127,-73,55,-56,-40,54,24,-117,4,-127,-59,-9,56,-118,127,-73,59,127,57,24,73,11,127,-127,81,-23,-54,54,-127,27,80,-127,-35,-20,-121,-110,-81,-127,-5,127,-85,61,-14,-127,8,-62,31,-65,-66,-32,58,-89,-22,57,-81,-33,33,-27,-127,-119,67,127,-62,96,76,-79,-38,127,-124,-41,110,-70,-5,-11,86,-15,-14,-78,22,-6,-82,76,-14, -127,5,-85,127,-89,-127,-110,-127,64,9,6,39,-89,-97,-49,118,-115,-127,127,127,17,-127,-122,119,-127,127,22,90,-69,-34,-98,61,-127,85,127,-73,15,100,127,-85,-46,15,27,45,-64,-127,-127,-127,4,-127,-100,127,44,55,44,-90,24,46,109,1,-16,-41,-103,127,4,-127,57,127,37,42,-86,-80,-28,55,-109,-127,127,127,98,-52,-82,7,-104,70,-86,-99,127,127,108,74,-127,-127,-101,-63,76,127, 48,-15,97,59,7,-26,16,31,-35,102,-40,70,3,-31,-127,74,38,-23,22,3,-121,16,-83,-74,-3,17,127,-9,127,92,27,-106,-10,-127,-16,113,-123,14,-42,-32,-7,95,25,111,-11,-21,-24,-56,127,-72,-81,-22,45,-99,-127,48,87,5,-114,109,-67,-61,1,59,127,-29,-12,-10,-50,16,-18,-55,-127,-127,9,-36,7,-41,-95,-24,-58,-127,-26,127,-78,12,-27,-17,-51,-59,-18,36,-9,127,36,-15, 
  /* [0][2][][] */ 30,-125,43,-15,31,3,45,50,-20,-38,-2,-15,23,-34,-12,53,-25,33,-19,33,-15,56,14,-70,23,118,-6,-1,-31,19,7,13,-8,-5,-31,74,71,39,10,-37,3,15,-9,-11,-24,-30,-26,11,-15,54,-41,17,-31,-15,-27,-16,-9,0,-38,52,-45,-19,62,-4,-19,53,-22,-27,23,21,22,55,-33,-2,35,23,-93,-34,-86,19,16,-16,-20,-25,-121,29,-62,-19,-98,126,-30,27,9,-3,-1,-22, -44,5,127,-15,127,56,-11,11,-127,14,-60,-22,127,-39,-58,51,12,39,-15,-22,9,39,48,-3,65,-42,-7,44,-18,109,-6,19,-52,38,10,12,97,78,31,-109,-12,-16,-127,26,-14,3,-48,-70,1,-39,-37,69,44,-70,-23,-113,-11,127,-80,28,95,-113,114,82,-17,19,-30,9,127,23,14,73,-94,14,-25,-52,-71,-103,-127,2,-20,-43,-35,-65,-93,127,4,-19,69,107,27,30,-4,-20,20,-9, 9,68,27,-22,23,-13,-1,36,27,64,8,14,-4,-34,0,51,-46,39,-8,29,-13,62,-8,-70,12,120,12,31,22,33,-10,-71,-40,-10,-27,4,52,16,-1,-3,-3,-10,20,24,-53,-2,-17,27,24,59,-27,-9,-50,-21,11,13,12,2,-41,101,-60,0,26,-20,36,35,-43,14,15,38,10,54,-1,-28,10,6,-58,-18,-81,22,-20,-55,-10,2,-97,19,-55,-43,-100,127,-35,19,7,16,-13,-23, 
};
const TfArray<4, int> tensor_dimension11 = { 4, { 1,3,3,96 } };
const TfArray<96, float> quant11_scale = { 96, { 0.010435165837407112, 0.0087922364473342896, 0.0060190977528691292, 0.0072653950192034245, 0.0099444864317774773, 0.01370706595480442, 0.013243131339550018, 0.0096821915358304977, 0.013190709054470062, 0.0067658396437764168, 0.0049491520039737225, 0.013030507601797581, 0.011102147400379181, 0.004780767485499382, 0.0059863063506782055, 0.0057713477872312069, 0.0045204963535070419, 0.010899336077272892, 0.010181106626987457, 0.0063923215493559837, 0.0066674910485744476, 0.014210257679224014, 0.014634229242801666, 0.010315134190022945, 0.031951401382684708, 0.0056953434832394123, 0.01146649569272995, 0.005814701784402132, 0.0089501971378922462, 0.0040086624212563038, 0.015503622591495514, 0.0092343520373106003, 0.0084369750693440437, 0.0071352175436913967, 0.010365674272179604, 0.010585623793303967, 0.0072809029370546341, 0.012296671979129314, 0.01243443600833416, 0.0062856297008693218, 0.01006030011922121, 0.0088874632492661476, 0.0096555128693580627, 0.0047955862246453762, 0.0039611612446606159, 0.005310076754540205, 0.0083160670474171638, 0.0043801539577543736, 0.008001912385225296, 0.00505470996722579, 0.0043701254762709141, 0.0077692437916994095, 0.0082425680011510849, 0.0082764830440282822, 0.011268094182014465, 0.0063443365506827831, 0.0081254290416836739, 0.010072547011077404, 0.0057793236337602139, 0.0049116676673293114, 0.0057245637290179729, 0.0062516857869923115, 0.0063089909963309765, 0.0048550907522439957, 0.0088932150974869728, 0.018281402066349983, 0.018113184720277786, 0.0096544073894619942, 0.0097806239500641823, 0.010266304016113281, 0.012174502015113831, 0.006531598512083292, 0.0045406785793602467, 0.0094393230974674225, 0.011989017017185688, 0.0064001595601439476, 0.0071381204761564732, 0.0076552834361791611, 0.0049908505752682686, 0.015492390841245651, 0.012061412446200848, 0.0042679151520133018, 0.010222818702459335, 0.0082202386111021042, 0.0042350916191935539, 0.0097625991329550743, 0.0066097327508032322, 0.0078187864273786545, 0.0080428943037986755, 0.0066185505129396915, 0.00326368841342628, 0.014613660983741283, 0.011966567486524582, 0.010724781081080437, 0.006118446122854948, 0.013974985107779503, } };
const TfLiteAffineQuantization quant11 = { (TfLiteFloatArray*)&quant11_scale, (TfLiteIntArray*)&g0::quant6_zero, 3 };
const MODEL_SECTION(EI_MODEL_SECTION) ALIGN(16) int32_t tensor_data12[96] = { 7066, 4937, 2090, -1047, 5051, 15917, 9982, 1653, -709, 8389, 1331, -3986, 4062, 3470, 606, -577, 3981, 8008, -1150, -293, 5811, 17100, 12964, -2285, -4141, -732, 10049, -255, 1980, 1925, 9044, -1857, 10148, 2682, 4773, -4235, 1071, -4755, 360, 2717, 3747, 1391, 1768, -621, 942, 2311, 3474, 5095, 3936, 2465, 7397, 2143, -2717, 2144, 1501, 2840, 1895, 2325, 9871, 1195, -979, 6156, 5766, 3543, 3628, 8774, -4874, 2560, 6807, -852, 6548, 2222, 2588, 3124, 4992, 2646, 350, 2964, 2339, 5199, 3229, 3411, 7156, 726, 2399, 5291, 933, -988, 19137, -510, 1121, -1381, 15995, 3697, -94, -925, };
const TfArray<96, float> quant12_scale = { 96, { 0.00010823864431586117, 7.8278455475810915e-05, 9.6934105386026204e-05, 0.00017124034638982266, 0.00014235054550226778, 5.5758708185749128e-05, 8.7616266682744026e-05, 0.00015595508739352226, 0.00014211698726285249, 8.9332570496480912e-05, 0.00017287052469328046, 0.00011394777538953349, 0.00012919963046442717, 0.00014909935998730361, 0.00015114531561266631, 0.00013641903933603317, 0.00015128072118386626, 8.9389322965871543e-05, 9.2273337941151112e-05, 0.00012175982556072995, 0.00010166883294004947, 5.2413644880289212e-05, 6.6628439526539296e-05, 0.00012846708705183119, 0.00014281977200880647, 0.00013400975149124861, 8.5821855464018881e-05, 0.00011983794684056193, 0.0001307047059526667, 0.00011838864156743512, 9.3496804765891284e-05, 0.00016726796457078308, 7.6593503763433546e-05, 0.00016466176020912826, 0.00014909396122675389, 0.00012899267312604934, 0.00013046398817095906, 0.00012522211181931198, 0.00012809039617422968, 0.00011213488323846832, 0.00012572050036396831, 0.000155949717736803, 0.00019051549315918237, 0.00019362893362995237, 0.00026805419474840164, 0.00016970980504993349, 0.00016873242566362023, 0.00011602003360167146, 0.00014673630357719958, 0.00019338561105541885, 9.9435412266757339e-05, 0.00016680412227287889, 0.0001411693956470117, 0.00018591164553072304, 0.00015786044241394848, 0.00014352600555866957, 0.00018900951545219868, 0.00013854885764885694, 7.5095413194503635e-05, 0.00011794635065598413, 0.00019313624943606555, 0.00011189482029294595, 0.00010058543557533994, 0.00016041297931224108, 0.00015058365534059703, 9.3286711489781737e-05, 0.00012280094961170107, 0.00015549776435364038, 9.4226728833746165e-05, 0.00017852855671662837, 0.00011264830391155556, 0.00010946840484393761, 0.00016346428310498595, 0.00012619832705240697, 0.00011166208423674107, 0.00010289568308508024, 0.00012378885003272444, 0.00012285452976357192, 0.00014326265954878181, 0.000103046688309405, 0.00013471969577949494, 0.0001259197888430208, 0.000105785540654324, 0.00014392494631465524, 0.00014491916226688772, 0.00013197408406995237, 0.00017109712644014508, 0.00020837178453803062, 5.1092723879264668e-05, 0.00017332077550236136, 0.00016783218597993255, 0.00015406659804284573, 5.1096540119033307e-05, 0.0001123838810599409, 0.00017484244017396122, 0.00011312486458336934, } };
const TfLiteAffineQuantization quant12 = { (TfLiteFloatArray*)&quant12_scale, (TfLiteIntArray*)&g0::quant6_zero, 0 };
const MODEL_SECTION(EI_MODEL_SECTION) ALIGN(16) int8_t tensor_data13[96*1*1*16] = { 
  /* [0][0][][] */ -65,40,-6,-14,-26,-71,-50,-24,65,-46,34,-67,117,-105,6,-127, 
  /* [1][0][][] */ -113,60,-105,-113,-66,19,5,58,-31,-1,114,-41,41,127,17,59, 
  /* [2][0][][] */ -58,-30,-73,-23,-21,-54,35,-60,-102,127,74,24,71,57,-73,126, 
  /* [3][0][][] */ -59,-68,8,-36,-104,11,-55,-121,-11,15,55,-63,-60,-33,-127,-40, 
  /* [4][0][][] */ 79,11,-9,49,-58,-25,-127,42,10,83,6,15,22,8,-17,-71, 
  /* [5][0][][] */ -50,63,-85,-1,47,-49,-14,-91,104,-46,-15,-43,16,-127,-84,-108, 
  /* [6][0][][] */ -6,-31,-21,35,-91,76,54,-30,-28,-52,127,-30,-4,-2,-107,14, 
  /* [7][0][][] */ 19,127,106,-42,58,82,-19,-71,35,56,-113,-42,31,2,48,54, 
  /* [8][0][][] */ -42,-1,36,-4,75,7,90,127,-58,-8,-71,-91,30,90,-58,-65, 
  /* [9][0][][] */ 30,47,115,33,-120,-40,-91,-85,53,9,127,42,-41,-88,70,-24, 
  /* [10][0][][] */ -27,-111,24,-78,-127,71,17,43,-28,-48,-1,24,-12,60,-127,36, 
  /* [11][0][][] */ 94,-53,-1,95,-113,-18,56,3,127,108,-47,33,23,-79,-16,92, 
  /* [12][0][][] */ -78,-91,127,19,41,-19,30,63,58,-34,97,54,-23,23,-111,34, 
  /* [13][0][][] */ -26,-31,11,22,9,10,127,56,-66,34,16,7,-19,97,66,-59, 
  /* [14][0][][] */ 127,-80,122,0,98,69,88,74,56,82,57,41,62,-29,47,-50, 
  /* [15][0][][] */ -12,109,13,-36,18,127,-79,51,-32,-33,-44,-9,-40,116,-20,-37, 
  /* [16][0][][] */ -47,45,112,-34,12,78,1,3,1,5,-9,29,77,2,79,127, 
  /* [17][0][][] */ 93,101,68,-84,47,-34,3,-111,-32,75,-71,44,-95,-61,127,-87, 
  /* [18][0][][] */ -100,5,-51,-80,92,77,-40,-51,32,64,127,70,-16,99,-36,3, 
  /* [19][0][][] */ 43,127,83,70,45,-23,-27,5,-52,102,53,103,45,73,-48,42, 
  /* [20][0][][] */ 102,-9,-9,59,-76,-6,-35,39,-32,-64,-127,-55,117,-44,38,-3, 
  /* [21][0][][] */ -127,-64,-16,74,-47,7,-77,92,-13,14,59,32,-7,54,-65,34, 
  /* [22][0][][] */ -29,-9,-83,-100,127,-15,-32,63,49,67,81,64,-9,36,-20,66, 
  /* [23][0][][] */ -70,12,-14,22,29,59,108,90,-19,127,-30,-9,-21,35,-71,-45, 
  /* [24][0][][] */ 43,-74,42,1,127,37,76,-43,61,26,44,35,-66,33,4,-3, 
  /* [25][0][][] */ 116,-58,67,3,20,-9,-32,82,103,-33,-40,2,127,-38,73,60, 
  /* [26][0][][] */ 52,47,98,99,61,-7,-68,1,-5,65,13,127,20,-71,30,-48, 
  /* [27][0][][] */ -46,20,-84,7,-47,95,-12,-123,27,-93,121,11,57,-49,114,127, 
  /* [28][0][][] */ -39,37,-89,-127,31,-84,12,-60,-110,95,-52,19,-29,30,-22,69, 
  /* [29][0][][] */ 71,109,-88,48,33,95,-35,-1,41,73,35,51,-127,35,-30,107, 
  /* [30][0][][] */ -34,60,-116,-61,71,-50,8,14,-40,65,-70,-10,23,43,-35,127, 
  /* [31][0][][] */ 34,-116,78,55,76,-58,-84,25,-22,-16,14,-33,-91,57,42,127, 
  /* [32][0][][] */ -46,65,7,47,-123,68,5,61,29,-127,19,-76,27,25,49,47, 
  /* [33][0][][] */ -74,-2,53,85,-1,19,-43,7,-32,-46,20,-11,-10,4,10,127, 
  /* [34][0][][] */ 1,9,-99,-107,69,-21,-13,54,32,-14,-11,-18,-67,-33,-34,127, 
  /* [35][0][][] */ 72,-5,34,-11,-14,21,-90,-18,-29,-127,-32,15,-9,-25,48,-15, 
  /* [36][0][][] */ -25,26,-114,-40,23,127,-3,51,-30,-11,88,31,-9,29,-93,70, 
  /* [37][0][][] */ 66,26,74,-42,50,-127,45,-7,-110,62,-90,-30,3,9,92,18, 
  /* [38][0][][] */ -26,127,35,-45,42,17,64,-96,5,-9,-127,35,-61,-100,-93,21, 
  /* [39][0][][] */ 92,22,-108,-127,-2,-31,-7,-65,4,-23,-4,-31,49,2,-117,-80, 
  /* [40][0][][] */ -65,8,-78,-114,-36,-36,9,-127,16,-9,19,-33,70,82,28,81, 
  /* [41][0][][] */ -57,-101,-21,127,-6,-28,-85,-11,-19,-36,102,-55,-94,10,-4,49, 
  /* [42][0][][] */ -27,58,-24,-127,21,3,-2,-26,54,6,-38,10,74,-16,-11,19, 
  /* [43][0][][] */ -9,56,-7,28,127,45,31,31,4,56,15,-79,-104,-24,-13,-9, 
  /* [44][0][][] */ 79,-8,18,41,-20,4,-7,36,11,-36,37,7,127,21,-62,-22, 
  /* [45][0][][] */ 9,-82,-67,37,-44,-78,23,55,27,-12,16,22,-72,127,35,-31, 
  /* [46][0][][] */ -15,-80,20,28,35,-20,-78,26,40,-40,57,-12,59,75,50,127, 
  /* [47][0][][] */ -36,-52,20,82,-4,-6,62,17,-1,-70,-127,-38,41,-28,-66,30, 
  /* [48][0][][] */ -98,89,-20,-39,-9,57,-2,-127,23,-22,52,-58,65,-125,-62,18, 
  /* [49][0][][] */ -46,10,43,-39,6,0,127,115,-38,-49,-13,27,-54,24,-50,29, 
  /* [50][0][][] */ 44,15,-80,26,41,-127,-35,9,-76,60,-44,-7,27,-92,-126,-66, 
  /* [51][0][][] */ -28,47,-41,85,-32,26,-39,-79,-40,-90,6,-40,13,20,-10,127, 
  /* [52][0][][] */ -127,3,24,2,36,56,62,1,7,-96,-53,-40,-113,-50,-122,-9, 
  /* [53][0][][] */ -52,-50,-50,-127,-12,-17,3,68,35,-58,-31,24,-34,43,67,100, 
  /* [54][0][][] */ 20,-45,-4,4,-77,80,64,-21,-26,-112,66,32,-27,-12,-127,54, 
  /* [55][0][][] */ 1,-20,-40,29,56,-24,61,70,-50,-68,-127,-25,49,-31,-18,23, 
  /* [56][0][][] */ 42,-28,-54,-33,-127,27,-107,18,-19,5,-16,25,115,-10,45,19, 
  /* [57][0][][] */ -33,20,18,-28,127,39,52,63,-34,58,-4,-22,-32,81,-79,-24, 
  /* [58][0][][] */ 50,17,-3,-10,43,-6,-68,-78,39,-127,-91,4,-96,-47,-6,45, 
  /* [59][0][][] */ -81,-59,4,50,42,86,-88,-63,101,126,-127,21,-50,2,-49,-16, 
  /* [60][0][][] */ 13,-44,-9,19,-127,-37,40,13,-9,41,-5,40,0,-30,42,50, 
  /* [61][0][][] */ 24,43,-85,7,-44,-18,-127,-67,-22,8,42,108,59,-45,118,71, 
  /* [62][0][][] */ 38,-19,48,-18,-5,32,27,127,-49,115,33,67,39,58,67,98, 
  /* [63][0][][] */ 31,-127,-11,-11,-77,6,41,-29,-12,-30,-4,-17,-29,110,104,36, 
  /* [64][0][][] */ -13,-1,-127,-28,13,53,20,-8,-5,-74,60,4,55,-16,-65,93, 
  /* [65][0][][] */ -50,-2,44,26,44,-3,91,106,-68,12,-65,-57,43,127,-83,11, 
  /* [66][0][][] */ -41,-127,-1,-94,-33,-112,20,-28,6,-25,30,69,-43,-37,-84,60, 
  /* [67][0][][] */ -17,-74,-67,-27,-72,103,-9,-127,-71,-27,-54,-96,6,-25,-49,28, 
  /* [68][0][][] */ 127,44,7,-5,-91,20,-58,-51,-66,-121,-16,-3,31,-33,72,-72, 
  /* [69][0][][] */ 54,12,50,-3,6,-40,-34,46,-25,127,-26,6,-10,28,80,-31, 
  /* [70][0][][] */ 1,-17,-29,33,-96,21,-3,-73,72,127,52,54,70,-24,-30,43, 
  /* [71][0][][] */ 119,-81,80,90,-61,-21,-19,-25,127,9,-44,44,78,-59,21,-3, 
  /* [72][0][][] */ 0,-24,38,95,44,-15,-127,69,71,-9,42,19,-53,-60,-46,72, 
  /* [73][0][][] */ 50,8,64,-127,56,-96,-75,41,4,105,-30,-2,19,-95,31,-32, 
  /* [74][0][][] */ 98,26,46,61,-127,-21,51,15,-102,-62,7,-59,40,-70,15,2, 
  /* [75][0][][] */ 96,121,-121,24,88,63,-24,-31,-15,-41,36,79,-127,54,74,70, 
  /* [76][0][][] */ -112,-35,13,-97,-78,8,126,-12,-112,24,126,83,-30,-127,-51,100, 
  /* [77][0][][] */ -74,127,-38,14,-50,-72,42,82,31,-57,-1,78,-21,74,-18,74, 
  /* [78][0][][] */ 127,30,-48,19,-41,13,-107,-38,-17,-16,-79,-4,27,-87,23,29, 
  /* [79][0][][] */ -83,-33,101,-12,-5,-108,-32,-58,-6,38,74,8,-2,127,-95,91, 
  /* [80][0][][] */ 72,123,12,-127,-2,43,117,-37,-6,22,-51,26,83,-49,16,-9, 
  /* [81][0][][] */ 31,-63,8,-94,94,44,-5,127,101,36,-7,-34,-16,35,-76,-63, 
  /* [82][0][][] */ 42,29,48,-16,127,-117,34,37,9,87,-9,17,-5,-27,23,-76, 
  /* [83][0][][] */ -28,57,29,59,73,68,121,127,6,31,-66,-81,-69,99,-41,-106, 
  /* [84][0][][] */ 14,-76,7,73,2,-98,-127,44,-78,39,-36,-13,-104,53,12,-61, 
  /* [85][0][][] */ -127,70,-40,-9,-24,-46,-37,-49,-34,44,18,-83,-121,-77,-91,61, 
  /* [86][0][][] */ -10,55,93,100,38,-37,57,25,-17,20,-45,-85,22,78,-127,-56, 
  /* [87][0][][] */ -13,41,127,-25,-93,-28,17,5,27,-23,10,41,-48,8,-13,-9, 
  /* [88][0][][] */ -38,-76,-121,16,26,40,-2,23,-3,-58,-94,-89,127,-14,-2,56, 
  /* [89][0][][] */ 46,35,11,-127,-6,-87,-75,54,108,-17,26,-116,5,-18,72,-71, 
  /* [90][0][][] */ -7,70,40,6,-41,40,28,127,-4,-44,-9,111,48,26,-32,77, 
  /* [91][0][][] */ -72,8,-23,76,80,64,-35,-103,-51,46,1,8,-119,-127,-68,-4, 
  /* [92][0][][] */ -51,66,2,-62,-127,-8,-85,68,-32,68,117,77,11,-13,50,29, 
  /* [93][0][][] */ 110,47,88,40,-127,-72,24,38,-37,-80,-33,-85,44,-50,-17,-11, 
  /* [94][0][][] */ -29,-127,27,-113,18,33,-19,4,83,-12,3,60,20,60,-57,44, 
  /* [95][0][][] */ -50,-71,-19,-71,127,105,-36,30,104,53,-90,58,-22,117,-85,26, 
};
const TfArray<96, float> quant13_scale = { 96, { 0.0016682798741385341, 0.0012065041810274124, 0.0014940432738512754, 0.0026393237058073282, 0.0021940458100289106, 0.00085940776625648141, 0.0013504276284947991, 0.0024037323892116547, 0.0021904460154473782, 0.001376881031319499, 0.0026644496247172356, 0.0017562746070325375, 0.0019913511350750923, 0.0022980652283877134, 0.0023295995779335499, 0.0021026236936450005, 0.0023316864389926195, 0.0013777557760477066, 0.0014222069876268506, 0.0018766815774142742, 0.0015670194989070296, 0.00080785038881003857, 0.0010269427439197898, 0.0019800604786723852, 0.0022012779954820871, 0.0020654895342886448, 0.0013227703748270869, 0.0018470596987754107, 0.0020145487505942583, 0.0018247215775772929, 0.001441064290702343, 0.0025780976284295321, 0.0011805340182036161, 0.0025379282888025045, 0.002297982107847929, 0.0019881613552570343, 0.0020108385942876339, 0.0019300456624478102, 0.0019742546137422323, 0.0017283326014876366, 0.0019377273274585605, 0.0024036497343331575, 0.0029364111833274364, 0.0029843985103070736, 0.0041315136477351189, 0.0026157335378229618, 0.0026006691623479128, 0.0017882143147289753, 0.0022616435308009386, 0.0029806483071297407, 0.0015325958374887705, 0.0025709483306854963, 0.0021758407820016146, 0.0028654523193836212, 0.0024330995511263609, 0.0022121632937341928, 0.0029131995979696512, 0.0021354504860937595, 0.0011574439704418182, 0.0018179045291617513, 0.0029768049716949463, 0.0017246324568986893, 0.0015503211179748178, 0.0024724418763071299, 0.0023209427017718554, 0.001437826082110405, 0.0018927283817902207, 0.0023966836743056774, 0.0014523145509883761, 0.0027516568079590797, 0.0017362459329888225, 0.0016872341511771083, 0.0025194715708494186, 0.0019450921099632978, 0.0017210453515872359, 0.0015859289560467005, 0.0019079549238085747, 0.0018935543484985828, 0.0022081043571233749, 0.0015882564475759864, 0.0020764318760484457, 0.001940799062140286, 0.0016304702730849385, 0.0022183121182024479, 0.0022336358670145273, 0.0020341137424111366, 0.0026371162384748459, 0.0032116298098117113, 0.00078749103704467416, 0.0026713893748819828, 0.0025867938529700041, 0.0023746250662952662, 0.00078754988498985767, 0.0017321703489869833, 0.0026948428712785244, 0.0017435911577194929, } };
const TfLiteAffineQuantization quant13 = { (TfLiteFloatArray*)&quant13_scale, (TfLiteIntArray*)&g0::quant6_zero, 0 };
const MODEL_SECTION(EI_MODEL_SECTION) ALIGN(16) int32_t tensor_data14[16] = { -30361, -5885, 3184, -12765, 12590, -14610, 25913, -8341, 11671, -7401, 14904, 11691, -3366, -31427, -3147, 7033, };
const TfArray<16, float> quant14_scale = { 16, { 8.1020712968893349e-05, 5.5508011428173631e-05, 5.3778861911268905e-05, 7.1006856160238385e-05, 9.890595538308844e-05, 0.00016402112669311464, 5.3797804866917431e-05, 6.0121172282379121e-05, 0.00010712320363381878, 8.937349048210308e-05, 9.2447757197078317e-05, 8.5286228568293154e-05, 7.6733544119633734e-05, 7.653853390365839e-05, 6.0538583056768402e-05, 8.1065918493550271e-05, } };
const TfLiteAffineQuantization quant14 = { (TfLiteFloatArray*)&quant14_scale, (TfLiteIntArray*)&g0::quant8_zero, 0 };
const MODEL_SECTION(EI_MODEL_SECTION) ALIGN(16) int8_t tensor_data15[16*1*1*96] = { 
  /* [0][0][][] */ 3,43,8,-18,-32,-88,-16,-3,-13,-90,53,0,64,-63,71,40,-102,-27,40,35,127,16,-88,-8,8,62,126,64,-8,76,37,-25,10,8,-4,-42,27,38,-14,-14,126,23,2,-30,-2,8,-2,-35,10,-27,86,-19,-55,-2,62,34,-3,-50,5,26,-1,49,-48,-13,30,12,74,19,-17,-10,7,34,24,34,7,37,70,-22,57,28,-12,54,18,49,-66,17,4,64,10,20,-94,-13,27,4,100,58, 
  /* [1][0][][] */ 21,33,-61,-39,-5,-39,100,-71,-66,-39,-42,-38,-5,-39,-2,-44,-42,-15,-46,-5,1,-98,107,-50,5,5,5,55,-63,15,-48,26,-44,35,6,-4,-22,67,-55,73,36,6,-17,-50,65,-43,-1,27,-86,1,45,-127,-42,49,76,58,30,30,-73,22,-49,6,-6,-23,41,35,114,6,-57,-111,5,15,26,73,-31,41,-45,-20,113,-20,39,-14,49,-54,-40,-53,-6,14,-28,-43,40,-1,61,-71,-43,54, 
  /* [2][0][][] */ 2,-15,19,-8,81,45,-45,17,-59,47,6,-20,27,-11,23,24,30,-28,-127,-17,-19,-38,-8,33,-1,-12,-43,16,-36,-24,-17,67,-19,-41,-9,19,-45,28,-30,-18,65,4,9,41,13,51,-3,-15,-83,-2,-16,9,-28,44,15,-52,40,17,44,28,-28,-21,-15,54,32,-12,-36,1,-15,-7,-11,-33,15,51,36,66,-62,-17,-24,-39,38,34,63,-24,-10,-44,-18,-48,-15,-28,-16,58,-2,-3,87,-34, 
  /* [3][0][][] */ 50,-39,-17,-114,-13,-17,112,-30,37,120,-83,-13,15,-14,-28,67,58,35,-37,32,-39,19,12,-2,-37,86,36,-8,-44,-5,-76,75,8,-22,22,-40,-1,-42,-19,52,-4,6,-35,15,61,-50,-5,36,40,-28,16,-63,110,34,35,-4,-4,-20,-18,-57,-42,38,74,-10,-21,-26,121,-30,-48,-9,-59,28,12,-71,8,-72,21,-55,127,9,-6,-63,-37,-34,-27,-44,77,69,-45,50,-56,6,10,-86,-17,29, 
  /* [4][0][][] */ -29,65,26,-11,-30,4,-47,-29,25,-41,27,-16,15,42,-11,28,-6,-36,-17,-48,41,-41,-73,-8,-21,-35,-24,3,-38,127,-66,-18,6,-27,5,-37,50,48,-25,4,28,8,3,-34,-55,3,53,-13,30,-16,-55,-23,-56,27,41,30,0,68,-25,30,-18,-57,-15,1,69,37,-70,-21,-15,8,8,-64,-12,52,57,65,-19,29,-61,53,23,63,26,-48,33,-57,-17,-70,-38,-46,-44,-11,-7,-3,21,-32, 
  /* [5][0][][] */ 5,-19,34,-10,-20,-20,-10,7,26,12,-16,-6,-17,-25,15,-6,-20,4,-55,-38,-29,9,-16,7,17,-47,63,-11,-6,49,15,78,-10,-73,17,7,-29,-23,-24,-6,-44,-7,-27,11,4,23,-61,15,-18,16,44,-13,15,-63,2,12,-25,-44,1,-37,28,31,16,41,-35,4,109,-16,1,-24,11,20,-5,27,27,10,1,-4,127,44,-25,-12,-21,29,37,62,13,88,-1,-35,0,14,6,-17,-27,16, 
  /* [6][0][][] */ 36,-77,76,44,-16,123,-39,-95,-28,-63,-125,63,-10,10,-48,83,21,35,9,-69,-127,-11,-71,-46,5,-42,-9,62,-108,49,-13,-37,40,75,-18,9,-6,-33,15,-18,-73,25,44,-31,8,43,-89,-18,62,7,-70,-120,63,6,-45,-24,20,-20,5,-41,-37,-48,18,-2,38,-100,-67,-37,-104,1,-8,-65,-55,-95,22,-91,76,6,-70,43,-31,63,43,-101,66,-45,-22,8,-47,57,-85,74,54,-52,76,-82, 
  /* [7][0][][] */ 1,-29,-61,79,-9,13,58,-7,-122,11,62,67,-5,-61,-6,-46,-13,-3,-6,-30,-80,-20,-29,-28,64,54,6,78,8,31,31,32,-61,-127,33,103,-10,13,-43,2,-19,-25,18,-77,39,58,63,82,-17,46,-42,14,9,-45,33,-55,-22,35,-70,-29,51,-7,-13,-43,59,-69,105,6,-66,-29,83,16,-42,-27,-88,-19,22,-50,101,-43,-6,-12,-58,-43,47,11,-89,44,-16,5,2,30,66,-3,94,5, 
  /* [8][0][][] */ -19,-47,-2,-14,-22,-17,11,-11,0,-5,58,32,13,35,-43,-2,64,-1,20,16,6,-76,-34,-21,-18,-39,62,5,-19,49,8,-26,-10,2,1,-1,-38,-16,23,-23,3,44,20,-40,12,-14,19,-5,29,6,48,12,3,15,-36,2,-17,101,-56,-1,-1,-56,-50,-4,-73,-21,-23,14,-14,11,35,-27,-16,-127,41,-102,18,16,-60,22,-26,-6,-9,65,58,-58,-33,47,-37,94,19,-18,-48,0,-9,-62, 
  /* [9][0][][] */ -16,-41,-22,43,19,36,11,36,-59,9,49,70,-28,58,22,-56,-9,29,-26,-66,-12,40,-1,14,-31,28,7,15,28,-10,24,-7,-22,-31,2,58,-26,-7,31,-1,-21,-33,25,-3,8,40,-1,37,-41,-5,-18,37,120,17,-22,-5,25,-18,36,16,-36,-12,71,12,3,11,60,11,34,-8,-20,25,-4,-125,-36,-127,-40,-18,38,-11,-7,29,11,-51,51,9,-64,-5,-8,105,38,27,47,30,-6,39, 
  /* [10][0][][] */ 32,36,22,17,-5,25,-36,-15,56,12,-55,24,23,8,-6,-63,-26,-6,21,-16,4,-7,-11,-16,7,-14,-94,51,-15,49,11,7,16,14,-20,12,18,-2,8,-1,34,-7,69,-44,-29,-13,20,21,21,-3,10,-12,-30,-14,-13,30,-10,4,-8,-14,-16,-47,-19,12,-14,-24,-93,-21,-41,-25,46,-22,-27,37,34,14,43,-27,-96,5,-16,29,12,-14,13,3,-80,-127,-24,21,9,16,48,-23,26,38, 
  /* [11][0][][] */ 23,-34,4,11,-46,22,5,8,71,-17,-33,-39,25,10,13,-8,-20,42,19,-60,8,17,17,-8,21,12,55,17,26,-56,-14,28,13,92,-93,14,20,-12,59,11,-52,46,-9,15,-41,-2,-15,-3,43,-20,-23,5,-27,14,-81,85,-20,3,2,-32,29,-6,-17,-57,-11,-38,-127,-75,3,-38,-80,30,43,24,-11,5,25,48,-107,-36,-18,-4,-9,-4,-18,-11,48,69,16,-49,13,10,-37,33,85,34, 
  /* [12][0][][] */ 27,26,-29,-7,31,-23,8,50,43,-30,3,1,3,-18,-3,5,19,-49,-23,-6,-17,59,24,73,-52,-36,-127,-2,74,-31,42,-6,-26,-87,69,8,45,-17,3,20,-14,-58,33,32,47,-14,29,-25,-64,-6,-56,109,63,-17,25,-74,10,17,-37,-40,1,41,67,8,-29,-29,25,38,112,16,27,18,-8,-8,-16,-4,-47,-62,41,-78,20,-55,43,-52,9,-2,-4,-100,0,24,-43,14,12,84,21,51, 
  /* [13][0][][] */ 0,10,-65,49,44,29,-5,12,15,74,-64,43,-54,-25,70,-62,24,48,63,-8,-63,-35,4,41,38,55,-18,31,21,39,76,-29,-20,62,-6,61,23,-47,-56,-48,0,-18,38,16,48,39,-33,46,-43,30,1,13,-25,-48,54,42,3,-50,-14,-18,25,3,-11,-23,5,83,127,55,23,-22,-46,-20,21,56,-87,50,11,-92,127,-52,-17,-40,45,-10,37,57,-47,-26,-9,-32,5,49,40,35,76,78, 
  /* [14][0][][] */ -21,62,14,-3,-69,-54,17,35,-68,-40,108,13,-83,-2,84,-20,-50,47,-72,46,2,16,-123,-3,-47,-4,-63,-121,2,-1,20,92,-62,36,9,-28,-30,-54,-5,-55,34,-29,32,-28,-5,69,-80,38,-23,-31,81,23,2,25,-23,32,-56,39,0,48,42,69,7,43,29,-41,7,-69,30,73,72,40,-50,37,6,16,39,-11,43,25,-62,127,-10,-119,87,1,8,7,-120,-3,-23,1,-43,12,34,25, 
  /* [15][0][][] */ 66,-29,30,46,44,1,-11,0,13,35,-71,-16,62,58,-4,-23,3,-2,-62,33,-14,-27,35,49,53,-37,93,35,50,-35,-26,51,58,45,2,-64,61,56,55,64,83,42,-2,10,-44,-127,33,-43,-25,-24,-10,8,-19,-43,-38,49,-5,4,-7,21,5,-62,-46,41,26,37,-78,42,8,-43,5,-11,-3,-111,-46,-99,-28,20,-125,24,65,-32,55,13,-51,-7,-15,-12,41,76,12,-61,-31,-12,38,-30, 
};
const TfArray<16, float> quant15_scale = { 16, { 0.003443380119279027, 0.0023590903729200363, 0.0022856015712022781, 0.0030177913140505552, 0.0042035030201077461, 0.0069708977825939655, 0.0022864066995680332, 0.0025551498401910067, 0.004552735947072506, 0.0037983732763677835, 0.0039290296845138073, 0.0036246646195650101, 0.0032611754722893238, 0.0032528876326978207, 0.0025728896725922823, 0.0034453014377504587, } };
const TfLiteAffineQuantization quant15 = { (TfLiteFloatArray*)&quant15_scale, (TfLiteIntArray*)&g0::quant8_zero, 0 };
const MODEL_SECTION(EI_MODEL_SECTION) ALIGN(16) int32_t tensor_data16[96] = { 10033, 137, -4444, 8737, -1996, -2797, 1018, -1894, 1444, -6084, -81, -5244, 7216, -5455, -2568, -6844, 289, 1266, -11185, -601, -315, -721, -7377, -1252, 117, 7395, -9804, -7265, -1950, -2329, 1551, -2575, 20521, -600, -692, -844, -676, 13605, -351, 10982, -1191, 6970, -206, 5228, -1179, -1396, 7232, -2717, -5274, 921, -4865, -669, -2681, -4473, 752, 2802, -242, 2850, 1227, 3295, 842, 2519, -1086, 6207, 10740, -1042, 13430, 5529, -912, -1404, 11899, -1929, 221, 2329, 512, 3336, 11241, 11008, 9771, 11252, 13840, -1633, 10714, 12946, -2032, -646, 12313, -6745, 10441, -1674, -6160, -5966, 508, 1124, 22301, -2548, };
const TfArray<96, float> quant16_scale = { 96, { 0.0001134015983552672, 0.00034018425503745675, 0.00017208821373060346, 0.00014829866995569319, 0.00027178128948435187, 0.00052868755301460624, 0.0001232179201906547, 0.00023384043015539646, 0.00029527008882723749, 0.00016298449190799147, 0.00021897777332924306, 0.00020101285190321505, 0.00010895045852521434, 0.00013110348663758487, 0.00023930711904540658, 0.0001686129835434258, 0.00025202493998222053, 0.00026025035185739398, 0.00011313652066746727, 0.00035968664451502264, 0.00040091775008477271, 0.00028467734227888286, 0.00010826267680386081, 0.00023944638087414205, 0.0014894005144014955, 0.00015921123849693686, 0.00022914113651495427, 0.00013219512766227126, 0.00034047657391056418, 0.00020385897369123995, 0.00021696514158975333, 0.00027040700661018491, 7.1224203566089272e-05, 0.00040733427158556879, 0.00014509998436551541, 0.00020633281383197755, 0.00033924207673408091, 7.6335789344739169e-05, 0.00024031903012655675, 0.00011494181671878323, 0.00059066328685730696, 0.0001643836876610294, 0.00025228408048860729, 0.00017377603217028081, 0.00017475111235398799, 0.000291621865471825, 0.00014988405746407807, 0.00032143475254997611, 0.00015744955453556031, 0.00029830919811502099, 0.00020955868239980191, 0.00026498912484385073, 0.00012702149979304522, 0.00020889467850793153, 0.0002414181362837553, 0.00023102833074517548, 0.00015053171955514699, 0.00036058167461305857, 0.00031200353987514973, 0.0002631477836985141, 0.00024055063840933144, 0.00031483109341934323, 0.00014501884288620204, 0.00012402315041981637, 0.0002277528983540833, 0.00047917969641275704, 0.00012358734966255724, 0.00015707223792560399, 0.00023741098993923515, 0.00024693403975106776, 0.00012341946421656758, 0.00026373562286607921, 0.00052982731722295284, 0.00019134215835947543, 0.00021949522488284856, 0.00023067410802468657, 0.00011824456305475906, 0.00015260688087437302, 0.00014344578085001558, 0.00020160007989034057, 8.9159482740797102e-05, 0.00025543250376358628, 9.6118230430874974e-05, 0.00025382390595041215, 9.9625955044757575e-05, 0.00033842481207102537, 0.00013751364895142615, 0.00024302709789481014, 0.00012986305227968842, 0.00020666368072852492, 0.00013306466280482709, 0.0002063453575829044, 0.00026881677331402898, 0.00017761625349521637, 8.4765830251853913e-05, 0.00031024939380586147, } };
const TfLiteAffineQuantization quant16 = { (TfLiteFloatArray*)&quant16_scale, (TfLiteIntArray*)&g0::quant6_zero, 0 };
const MODEL_SECTION(EI_MODEL_SECTION) ALIGN(16) int8_t tensor_data17[1*3*3*96] = { 
  /* [0][0][][] */ -55,-22,-5,-40,87,7,19,-6,-1,7,-14,-12,-26,21,-3,17,-18,-12,-29,-18,-15,40,9,41,-10,-15,-36,10,26,2,30,12,-5,8,-10,-5,1,-55,-23,2,3,-17,48,-30,-13,48,-45,-2,-17,2,2,50,-59,25,27,-21,16,-14,6,-22,-19,-31,3,-46,-15,-19,-51,-28,-19,35,13,5,20,-2,-22,-23,-10,-24,127,-52,-103,5,-127,-36,-15,-22,-12,17,-39,-7,-3,-15,-6,29,-31,11, -67,19,66,-97,-28,14,127,-43,9,-25,-44,28,-57,18,-85,127,-6,62,75,-41,-17,127,32,127,18,14,52,98,127,54,127,-20,-96,-11,-82,-22,-18,-95,127,-70,-28,-127,-12,-51,69,-42,-30,13,46,-6,26,127,-81,46,-105,-5,-72,-5,-9,24,-25,-127,-113,-79,-43,6,-12,-74,-17,32,-79,127,-127,-39,-9,-62,-127,-127,-17,-127,-127,23,-14,-83,127,59,-127,28,-127,15,13,2,4,127,-91,-79, -58,-9,-21,-8,70,9,26,-14,-15,17,-14,24,11,14,-2,16,-14,-8,-24,-21,-8,21,10,40,-11,-10,13,0,12,7,28,20,-11,5,-20,86,-1,-67,-19,31,6,-12,34,-9,-4,-13,-50,-3,-14,-10,3,38,16,4,-3,-20,69,-17,3,-22,-9,-19,-48,2,-23,-31,127,-21,-17,32,2,18,9,-17,-21,1,10,1,-51,-45,-89,-1,-122,-37,7,-33,-22,-32,-42,-29,-14,60,-2,23,-25,19, 
  /* [0][1][][] */ -82,-4,31,-50,27,86,-44,-8,-1,-8,-22,-10,-127,34,24,51,-18,29,92,35,37,-7,112,-29,33,19,63,15,-8,-9,-10,-12,-127,-12,49,-15,-6,-127,-35,-127,-7,9,96,-38,-62,127,-74,-60,49,49,23,-40,-111,98,63,-31,33,-28,28,-14,5,-17,79,-81,-40,17,-23,-35,-8,-6,-97,15,58,122,-20,-75,-70,-59,-59,-15,-83,-8,-44,-56,27,19,-75,62,-87,127,105,-66,127,-3,-90,-1, 87,127,127,116,-127,-127,112,-53,127,124,-66,-60,-75,127,-22,89,127,-127,127,127,127,-79,95,-108,-127,-127,127,127,-113,127,-38,127,-113,127,127,-110,127,113,20,-43,127,13,-127,-101,127,-28,127,127,127,-127,127,-113,127,127,-127,127,-127,127,-127,127,-116,94,100,-127,127,127,-21,127,-95,-127,-24,-126,1,127,127,87,10,-107,87,-65,47,127,95,127,116,72,-90,127,-106,58,-3,-17,-93,-26,-127,-27, -127,-28,18,-60,4,53,-67,5,-34,-17,-2,127,-80,31,27,45,-23,41,99,24,32,-14,112,-29,32,4,44,-4,-9,-18,4,-6,-92,-27,71,127,1,-108,-54,-52,-13,-36,40,-36,-51,-54,-80,-74,45,53,4,-17,124,7,92,-47,86,-23,43,-40,7,-31,-127,-9,-79,-10,-55,-31,-15,9,-127,4,34,-92,-16,127,-43,-56,-55,10,-106,-15,-75,-82,-3,18,-59,45,-23,-73,127,127,-46,-23,-71,4, 
  /* [0][2][][] */ -28,-36,-38,-27,44,19,-17,25,-8,35,36,-6,49,14,-6,-39,-4,-7,-34,-23,-45,-7,39,-17,-4,-8,-15,20,5,-16,-19,15,-24,-3,-10,-20,0,-76,-13,-13,-24,-6,19,13,22,19,-53,11,-41,-9,-13,-9,-3,-43,36,-14,9,-28,2,-35,-7,18,-1,-4,-43,-18,109,17,26,24,-5,-4,5,-24,-35,-37,-14,55,-24,-12,-13,5,-101,-25,-14,-1,45,-18,-11,7,-12,0,-15,-13,-48,0, -49,-54,12,-127,-24,17,45,127,-52,127,127,-7,-41,32,127,52,-9,-35,117,-63,-55,-35,127,25,6,-5,33,17,-2,-2,-82,-30,-86,-32,-102,-23,-88,-102,54,-93,-29,-115,-48,127,41,-19,-32,12,15,-20,-9,2,71,17,-58,-44,-52,-52,37,-72,127,19,113,-15,-97,-44,-23,-22,127,25,-61,20,20,-39,2,-47,-11,-19,-7,66,-89,-14,-97,-91,59,-127,-16,11,-63,8,24,15,6,-112,-73,127, -17,6,-43,-14,41,11,-17,19,-21,22,23,50,72,15,-3,-42,-7,11,16,-25,-35,-6,75,16,-8,-6,-18,6,1,-7,-31,16,-32,3,-11,-5,-4,-108,-15,16,-31,-34,5,6,12,3,-64,26,-28,-16,-5,-4,8,-45,34,-14,52,-21,7,-35,3,20,-3,12,-37,-21,-24,29,26,10,-43,-6,-38,-37,-32,-33,-11,32,91,-7,-19,-1,-78,-8,1,6,47,4,21,4,-25,36,-6,-13,-25,-4, 
};
const TfArray<96, float> quant17_scale = { 96, { 0.0051287217065691948, 0.015385236591100693, 0.0077828932553529739, 0.0067069833166897297, 0.012291631661355495, 0.023910520598292351, 0.0055726761929690838, 0.010575710795819759, 0.013353939168155193, 0.0073711671866476536, 0.0099035296589136124, 0.0090910447761416435, 0.0049274135380983353, 0.0059293108060956001, 0.010822948068380356, 0.0076257218606770039, 0.011398126371204853, 0.011770130135118961, 0.005116733256727457, 0.016267254948616028, 0.018131980672478676, 0.012874869629740715, 0.0048963078297674656, 0.01082924660295248, 0.067359901964664459, 0.007200517226010561, 0.010363179259002209, 0.0059786811470985413, 0.015398456715047359, 0.0092197638005018234, 0.009812505915760994, 0.012229477986693382, 0.0032211991492658854, 0.018422175198793411, 0.0065623186528682709, 0.0093316463753581047, 0.015342624858021736, 0.0034523764625191689, 0.01086871325969696, 0.0051983799785375595, 0.026713447645306587, 0.0074344468303024769, 0.011409846134483814, 0.0078592272475361824, 0.0079033263027667999, 0.013188945129513741, 0.0067786844447255135, 0.014537268318235874, 0.0071208425797522068, 0.013491387479007244, 0.0094775399193167686, 0.01198444701731205, 0.005744697991758585, 0.0094475094228982925, 0.010918421670794487, 0.010448530316352844, 0.0068079754710197449, 0.016307733952999115, 0.014110730029642582, 0.011901170015335083, 0.010879187844693661, 0.014238609932363033, 0.0065586487762629986, 0.0056090941652655602, 0.010300395078957081, 0.021671470254659653, 0.0055893841199576855, 0.0071037779562175274, 0.010737193748354912, 0.011167884804308414, 0.0055817915126681328, 0.011927755549550056, 0.023962069302797318, 0.0086536761373281479, 0.0099269319325685501, 0.010432509705424309, 0.0053477506153285503, 0.0069018271751701832, 0.0064875055104494095, 0.0091176023706793785, 0.0040323431603610516, 0.011552237905561924, 0.0043470608070492744, 0.011479487642645836, 0.0045057018287479877, 0.015305663459002972, 0.0062192180193960667, 0.010991188697516918, 0.0058732107281684875, 0.0093466099351644516, 0.0060180071741342545, 0.0093322135508060455, 0.012157557532191277, 0.0080329058691859245, 0.0038336352445185184, 0.014031396247446537, } };
const TfLiteAffineQuantization quant17 = { (TfLiteFloatArray*)&quant17_scale, (TfLiteIntArray*)&g0::quant6_zero, 3 };
const MODEL_SECTION(EI_MODEL_SECTION) ALIGN(16) int32_t tensor_data18[96] = { 2264, 7905, 410, 1439, 7768, 21018, 86, 2692, 11067, -1467, 11931, 3611, 2504, 852, 5515, 585, 3910, 4438, -384, 10883, 3956, 7940, -1162, 1723, -10936, 1310, 2802, 2323, 7541, 1920, 4131, 3500, 2355, 15296, 6066, 4375, 4463, 2359, 3098, 2612, 16333, 1953, 2269, 1890, 2524, 10424, 6466, 9122, 1405, -859, 1905, 6041, 2606, -3597, 8190, 359, 3679, 16861, 1161, 2494, 2820, 19474, 3272, -517, 15967, 13468, 2017, 4170, 5392, 4503, 3816, 1354, -4252, 5886, 2650, 5639, 289, 11920, 4343, 11634, 3098, 1108, 4790, 18476, 23, 6796, 7786, 1887, -717, 2817, 1661, 10982, 3974, 3386, 4804, 5221, };
const TfArray<96, float> quant18_scale = { 96, { 0.00015419644478242844, 8.7756576249375939e-05, 0.00023687968496233225, 0.00024276592012029141, 9.7936157544609159e-05, 4.5297481847228482e-05, 0.00022998191707301885, 0.00011294140131212771, 7.7299293479882181e-05, 0.00013448178651742637, 6.7264096287544817e-05, 0.00012999487807974219, 0.00012828639592044055, 0.00026338605675846338, 0.00010131049202755094, 0.00011623837781371549, 0.00016179012891370803, 0.00013463068171404302, 0.00014270178508013487, 8.3052182162646204e-05, 0.00011545862071216106, 9.7548290796112269e-05, 0.0001835151924751699, 0.00015070766676217318, 7.2529415774624795e-05, 0.00014018597721587867, 0.00018180119513999671, 0.00016881183546502143, 0.00011147565965075046, 0.0001537828502478078, 0.00013762828893959522, 0.00014367069525178522, 0.0001901954528875649, 5.8514997363090515e-05, 9.2032649263273925e-05, 0.00013416032015811652, 0.00013199404929764569, 0.00017261024913750589, 0.00013555776968132704, 0.00015861437714193016, 5.6197230151155964e-05, 0.0001630161568755284, 0.0001516540942247957, 0.00011342496873112395, 0.00014549515617545694, 7.8876393672544509e-05, 0.00010398458107374609, 7.8263015893753618e-05, 0.00019110718858428299, 0.00023868742573540658, 0.00021115283016115427, 0.00011258032463956624, 0.00018293257744517177, 0.00011194505350431427, 9.1076595708727837e-05, 0.00021581596229225397, 9.9228163890074939e-05, 5.6390807003481314e-05, 0.00015682318189647049, 0.00015038576384540647, 0.00016943296941462904, 4.8166730266530067e-05, 0.00018150998221244663, 0.00017064994608517736, 5.9354741097195074e-05, 6.3907580624800175e-05, 0.00020711294200737029, 0.00013358856085687876, 0.00014259541057981551, 0.00010955303878290579, 0.0001400616456521675, 0.0001442542125005275, 0.00013031066919211298, 0.00011883926345035434, 0.00017087851301766932, 0.00012352467456366867, 0.00022063426149543375, 7.1181515522766858e-05, 0.00014620536239817739, 8.058387174969539e-05, 0.00013283532462082803, 0.00015476772387046367, 9.3172951892483979e-05, 5.4116157116368413e-05, 0.0001580344105605036, 0.00010207673767581582, 9.7556890978012234e-05, 0.00021214375738054514, 0.00019154881010763347, 0.00019779001013375819, 0.00013678998220711946, 7.8987541201058775e-05, 0.00013562942331191152, 0.00012751255417242646, 0.00012068583600921556, 0.00011573742085602134, } };
const TfLiteAffineQuantization quant18 = { (TfLiteFloatArray*)&quant18_scale, (TfLiteIntArray*)&g0::quant6_zero, 0 };
const MODEL_SECTION(EI_MODEL_SECTION) ALIGN(16) int8_t tensor_data19[96*1*1*16] = { 
  /* [0][0][][] */ 71,-4,15,55,-111,-53,108,36,64,127,-56,43,35,6,41,70, 
  /* [1][0][][] */ -45,51,-89,-7,127,118,1,18,-49,16,-42,31,-61,85,-61,-25, 
  /* [2][0][][] */ -33,63,84,-5,63,81,15,25,44,-1,31,-14,62,-127,-6,7, 
  /* [3][0][][] */ 127,-18,21,11,13,19,4,1,34,20,-58,-21,-27,37,-15,44, 
  /* [4][0][][] */ -98,-4,10,7,-95,-10,-76,-14,-19,41,-12,-28,3,51,-38,127, 
  /* [5][0][][] */ -127,1,22,8,112,27,7,35,-64,14,-15,7,-57,62,-95,-20, 
  /* [6][0][][] */ -127,25,-39,38,-18,-78,86,22,-14,-41,-59,46,13,-3,-37,16, 
  /* [7][0][][] */ 2,123,61,-125,66,72,127,-8,63,-1,9,68,112,22,-31,-4, 
  /* [8][0][][] */ -14,-28,-77,66,-52,94,-52,-94,50,-34,77,36,127,46,-106,-2, 
  /* [9][0][][] */ -40,-127,-7,88,-39,-72,-12,65,72,59,8,67,-103,0,7,-51, 
  /* [10][0][][] */ 19,-57,-127,30,-83,91,70,-116,58,-58,11,-37,63,58,-60,52, 
  /* [11][0][][] */ -61,-124,-26,32,5,112,33,9,-2,15,19,-105,28,127,-98,113, 
  /* [12][0][][] */ -34,-86,-86,108,-99,-127,29,83,68,59,-35,98,0,-51,-23,11, 
  /* [13][0][][] */ -65,-22,-35,-11,-14,7,28,11,-10,127,-14,-24,32,23,17,-20, 
  /* [14][0][][] */ -120,-2,-70,-45,-36,120,1,-127,126,-82,87,-12,104,-40,-84,-78, 
  /* [15][0][][] */ -7,-127,94,-61,-53,-36,-7,75,-2,-53,-101,-37,94,-24,-36,-31, 
  /* [16][0][][] */ -7,-36,30,-37,39,24,-13,-30,81,-127,34,-17,-6,-18,-71,-106, 
  /* [17][0][][] */ -30,2,30,-61,18,-3,-45,2,105,-63,40,66,107,-73,-34,-127, 
  /* [18][0][][] */ 56,13,-35,-121,15,-23,108,-45,7,79,3,77,-6,78,-27,-127, 
  /* [19][0][][] */ -64,-5,-13,-80,-87,51,-15,-4,4,-26,33,-127,1,-15,-40,9, 
  /* [20][0][][] */ -9,73,65,-118,96,-1,-50,66,-127,-112,22,-105,-29,113,-46,-19, 
  /* [21][0][][] */ 17,-102,-127,19,99,33,64,97,-67,-70,-22,13,87,-91,-31,17, 
  /* [22][0][][] */ 34,-3,99,6,-4,-10,81,56,33,117,45,33,-26,12,127,-6, 
  /* [23][0][][] */ -127,-56,-47,13,75,53,4,-7,7,39,-2,-101,-7,62,56,110, 
  /* [24][0][][] */ 19,-12,21,60,6,-118,23,-54,24,113,-127,69,-40,-90,92,-76, 
  /* [25][0][][] */ 127,-75,103,117,48,0,-36,26,-100,83,43,-52,-24,28,85,-10, 
  /* [26][0][][] */ -15,16,19,43,-45,102,-19,35,-58,-27,-90,33,12,19,45,-127, 
  /* [27][0][][] */ 24,-2,-18,-64,-37,12,-96,7,-92,-13,-72,-59,-94,41,-26,127, 
  /* [28][0][][] */ -82,22,0,-13,8,-3,-127,-1,-9,-40,11,-15,4,-45,-69,-25, 
  /* [29][0][][] */ -23,-127,-33,84,-31,10,105,6,79,54,-112,61,25,-27,-46,73, 
  /* [30][0][][] */ 41,-51,-91,2,-127,25,43,-29,29,13,6,-14,-37,63,-4,74, 
  /* [31][0][][] */ -127,-19,1,73,-26,3,-51,-12,-31,-35,8,-23,-36,-40,-12,82, 
  /* [32][0][][] */ -127,-93,-90,2,-89,-52,0,-10,99,54,-55,-68,36,62,32,-8, 
  /* [33][0][][] */ -6,31,-108,43,-127,-89,51,0,-116,18,-51,-85,-29,94,64,73, 
  /* [34][0][][] */ 24,49,0,47,-75,-55,31,16,14,-127,-11,37,-33,22,42,100, 
  /* [35][0][][] */ 22,-12,-73,-8,-127,21,99,-15,-5,32,-18,-34,14,78,32,63, 
  /* [36][0][][] */ 10,2,-55,56,127,-27,39,66,-60,27,-88,-86,13,-30,11,18, 
  /* [37][0][][] */ -127,50,6,-78,43,-92,-39,-35,-6,-24,-18,44,59,-86,14,-120, 
  /* [38][0][][] */ 23,85,-10,-65,-94,-29,-127,-64,-32,-67,69,40,-87,-89,37,-21, 
  /* [39][0][][] */ -2,-41,-3,65,3,74,73,-45,-24,41,27,-20,-12,124,56,127, 
  /* [40][0][][] */ 75,65,105,82,-43,-60,-23,30,-126,108,3,-27,-58,-3,127,-6, 
  /* [41][0][][] */ -37,-8,5,41,-87,127,7,67,-65,27,-107,2,23,39,39,-124, 
  /* [42][0][][] */ 16,-97,0,-16,99,16,83,51,-40,-127,-81,-32,-25,-19,-3,45, 
  /* [43][0][][] */ -83,-108,-41,10,127,14,-19,119,-99,-67,-115,-94,111,-11,-72,72, 
  /* [44][0][][] */ -58,-75,-77,-106,27,83,67,24,-48,-127,-71,79,-51,38,43,92, 
  /* [45][0][][] */ -7,-38,-90,-2,-127,98,-28,-50,63,-45,42,-54,-23,18,-52,52, 
  /* [46][0][][] */ 20,-82,-15,20,63,-78,-23,105,-12,-44,53,49,-72,-57,50,-127, 
  /* [47][0][][] */ -70,-34,-5,80,-25,4,24,27,14,127,91,111,-64,71,7,97, 
  /* [48][0][][] */ 48,-14,-77,-88,36,-68,12,46,47,-75,-9,23,-50,6,-38,-127, 
  /* [49][0][][] */ 61,33,6,27,-1,-30,61,46,-32,127,-56,27,-36,-42,77,82, 
  /* [50][0][][] */ 3,-5,15,14,-127,-16,-12,-46,47,13,19,47,-16,-54,19,5, 
  /* [51][0][][] */ -6,12,-22,-127,-33,83,19,-32,2,11,49,-48,44,104,-25,36, 
  /* [52][0][][] */ 10,-35,10,-86,91,-103,-18,-27,38,4,127,-58,32,-6,-45,82, 
  /* [53][0][][] */ -56,-60,56,-45,-42,-127,19,-123,0,110,-107,78,-31,-14,32,-93, 
  /* [54][0][][] */ 31,78,40,-16,-127,-45,-101,-108,-6,15,72,63,-91,-28,44,15, 
  /* [55][0][][] */ 2,26,-36,63,-41,28,48,-13,8,127,37,50,-3,12,-9,56, 
  /* [56][0][][] */ 17,-122,-82,89,-92,57,13,101,106,-33,63,37,4,-24,57,127, 
  /* [57][0][][] */ 22,36,127,-108,70,15,7,22,81,-50,36,122,55,-62,97,-59, 
  /* [58][0][][] */ 69,-69,18,-78,41,27,-7,127,39,104,-7,70,57,26,76,-11, 
  /* [59][0][][] */ -69,46,39,-36,-9,-72,-10,44,-31,18,-66,-78,-127,-34,51,0, 
  /* [60][0][][] */ 33,-22,33,14,8,-28,0,-42,34,127,-2,61,-15,-25,-19,-30, 
  /* [61][0][][] */ 60,102,-24,-37,-113,-127,-16,-72,-92,-24,3,28,-80,-35,87,118, 
  /* [62][0][][] */ -17,74,-24,32,-45,127,-40,23,-47,10,-48,19,-30,27,56,-92, 
  /* [63][0][][] */ 38,-5,-65,-127,-14,-49,86,-17,0,-90,-36,23,-39,67,41,-40, 
  /* [64][0][][] */ -29,37,19,-43,56,-67,32,76,-127,-2,-86,-27,-33,71,68,65, 
  /* [65][0][][] */ -50,3,-26,-22,60,39,-37,-80,-101,-44,3,-48,-127,105,-41,48, 
  /* [66][0][][] */ -20,44,-13,38,-39,127,-20,17,-60,16,-33,41,-28,50,46,-89, 
  /* [67][0][][] */ 31,-25,-18,-22,24,-85,61,-95,4,43,-10,105,-61,-32,-7,-127, 
  /* [68][0][][] */ 19,-127,-28,62,-7,-4,28,70,40,28,42,13,-42,27,-12,-14, 
  /* [69][0][][] */ 43,78,89,-95,25,-8,-27,82,43,93,50,71,86,-101,57,-127, 
  /* [70][0][][] */ 30,24,43,-42,94,19,-99,-36,-127,-98,7,41,-42,58,-112,1, 
  /* [71][0][][] */ -26,-67,19,-39,62,-9,38,26,-73,67,-127,-49,12,83,-33,45, 
  /* [72][0][][] */ 14,22,55,10,-70,-17,-118,-77,-3,62,-25,57,25,93,-127,-18, 
  /* [73][0][][] */ -20,-26,-21,-51,37,-94,26,-37,54,89,118,-5,17,-6,-75,127, 
  /* [74][0][][] */ -3,9,-31,75,-73,-4,68,29,63,75,30,126,127,41,-65,17, 
  /* [75][0][][] */ -48,56,-30,26,-53,127,-25,22,-47,40,-13,49,-25,64,18,-46, 
  /* [76][0][][] */ -75,66,-64,56,-110,0,1,33,61,41,-65,-64,62,-60,-127,29, 
  /* [77][0][][] */ 93,115,-127,110,60,79,58,60,54,4,110,-55,43,0,72,30, 
  /* [78][0][][] */ 5,-41,-4,-57,65,-118,28,-43,42,39,122,-26,5,-20,-48,127, 
  /* [79][0][][] */ -54,61,0,22,-12,-44,-36,7,-127,-16,56,-6,75,38,-66,-31, 
  /* [80][0][][] */ -61,32,74,-8,72,48,10,-127,-78,65,-68,-43,7,-84,11,58, 
  /* [81][0][][] */ 86,67,-18,0,29,-30,72,127,-126,121,-58,-32,-27,28,102,116, 
  /* [82][0][][] */ 61,121,-30,-65,7,-47,109,-127,35,41,-66,75,119,-6,51,-59, 
  /* [83][0][][] */ -15,-37,26,21,19,39,-36,-86,75,-30,102,0,31,-57,-72,-127, 
  /* [84][0][][] */ -127,-90,-33,-15,6,73,66,10,69,72,85,100,53,84,-73,18, 
  /* [85][0][][] */ 95,-5,70,-79,86,-1,-19,65,17,127,-71,-1,-29,57,93,11, 
  /* [86][0][][] */ -81,53,-30,7,27,84,21,13,106,30,127,-29,-35,49,-12,-26, 
  /* [87][0][][] */ 14,-61,28,-40,47,-127,24,-29,43,-6,55,-32,40,-39,-40,65, 
  /* [88][0][][] */ -74,53,39,-13,98,-22,47,22,-82,-78,102,-61,79,127,95,-111, 
  /* [89][0][][] */ -27,32,-4,31,-24,127,-22,44,-28,14,-47,20,-8,48,25,-95, 
  /* [90][0][][] */ 49,-83,7,21,127,6,50,28,-11,-92,-100,-22,-11,-16,-65,19, 
  /* [91][0][][] */ -36,58,-16,-47,2,-59,-92,43,-81,17,-107,-127,-116,-71,-2,22, 
  /* [92][0][][] */ 64,52,56,28,-127,-84,35,10,-14,25,-22,-43,-21,-89,1,1, 
  /* [93][0][][] */ -11,-104,-119,50,-65,-50,-8,127,92,52,25,54,-81,49,-15,-22, 
  /* [94][0][][] */ 102,3,127,-18,21,-41,18,20,8,81,-10,62,24,25,114,-9, 
  /* [95][0][][] */ -48,-55,-13,-20,127,-9,47,75,-36,-13,-116,-59,16,-1,-56,15, 
};
const TfArray<96, float> quant19_scale = { 96, { 0.0032285565976053476, 0.0018374422797933221, 0.004959773737937212, 0.0050830193795263767, 0.0020505818538367748, 0.00094843615079298615, 0.0048153484240174294, 0.0023647607304155827, 0.0016184882260859013, 0.0028157720807939768, 0.001408371957950294, 0.0027218256145715714, 0.0026860535144805908, 0.0055147623643279076, 0.0021212333813309669, 0.0024337926879525185, 0.0033875526860356331, 0.0028188896831125021, 0.0029878821223974228, 0.0017389418790116906, 0.0024174661375582218, 0.0020424607209861279, 0.0038424308877438307, 0.0031555085442960262, 0.0015186169184744358, 0.0029352062847465277, 0.0038065433036535978, 0.0035345728974789381, 0.0023340710904449224, 0.0032198966946452856, 0.0028816533740609884, 0.0030081688892096281, 0.0039823018014431, 0.0012251837179064751, 0.001926974393427372, 0.0028090411797165871, 0.002763683907687664, 0.0036141038872301579, 0.0028383010067045689, 0.0033210590481758118, 0.0011766544776037335, 0.0034132231958210468, 0.0031753249932080507, 0.0023748856037855148, 0.0030463694129139185, 0.0016515095485374331, 0.0021772233303636312, 0.0016386666102334857, 0.0040013915859162807, 0.004997624084353447, 0.0044211060740053654, 0.0023572004865854979, 0.0038302321918308735, 0.0023438993375748396, 0.0019069566624239087, 0.004518742673099041, 0.002077633747830987, 0.0011807075934484601, 0.0032835549209266901, 0.0031487687956541777, 0.0035475781187415123, 0.0010085123358294368, 0.0038004457019269466, 0.0035730591043829918, 0.0012427662732079625, 0.0013380933087319136, 0.0043365191668272018, 0.0027970697265118361, 0.0029856546316295862, 0.0022938153706490993, 0.0029326027724891901, 0.0030203866772353649, 0.0027284375391900539, 0.0024882499128580093, 0.0035778447054326534, 0.00258635263890028, 0.0046196277253329754, 0.0014903945848345757, 0.0030612396076321602, 0.001687260577455163, 0.0027812984772026539, 0.0032405180390924215, 0.0019508501281961799, 0.0011330810375511646, 0.0033089155331254005, 0.0021372770424932241, 0.0020426406990736723, 0.004441854078322649, 0.0040106382220983505, 0.0041413162834942341, 0.0028641009703278542, 0.0016538366908207536, 0.0028398013673722744, 0.002669850829988718, 0.0025269133038818836, 0.0024233036674559116, } };
const TfLiteAffineQuantization quant19 = { (TfLiteFloatArray*)&quant19_scale, (TfLiteIntArray*)&g0::quant6_zero, 0 };
const MODEL_SECTION(EI_MODEL_SECTION) ALIGN(16) int32_t tensor_data20[16] = { -5444, 9979, -20760, 1254, 11115, -14642, -43311, -8455, -6329, 7985, -15361, -15399, 7795, -9423, -4473, -2360, };
const TfArray<16, float> quant20_scale = { 16, { 0.00016722787404432893, 0.00014975103840697557, 0.00017056273645721376, 0.00014086728333495557, 7.7978453191462904e-05, 0.00014913227641955018, 8.6080297478474677e-05, 0.00015429288032464683, 0.00010638566163834184, 7.1415714046452194e-05, 0.00014625558105763048, 0.00014802014629822224, 0.00010745254985522479, 7.3875147791113704e-05, 0.00012548318773042411, 0.00012758017692249268, } };
const TfLiteAffineQuantization quant20 = { (TfLiteFloatArray*)&quant20_scale, (TfLiteIntArray*)&g0::quant8_zero, 0 };
const MODEL_SECTION(EI_MODEL_SECTION) ALIGN(16) int8_t tensor_data21[16*1*1*48] = { 
  /* [0][0][][] */ 21,47,17,-33,72,69,-34,78,-19,106,10,48,-33,33,-10,48,36,89,50,-75,-65,67,-2,49,50,40,39,54,-39,-58,-3,92,-28,18,-63,43,47,-127,-31,5,11,-24,57,2,0,-47,-56,-24, 
  /* [1][0][][] */ -53,-3,-76,-42,13,85,-58,13,-19,-31,-34,34,62,-15,-28,-30,-27,-26,-7,16,-59,41,-105,-46,-61,-38,51,71,-13,-24,49,-45,9,-62,-28,47,9,-53,127,-41,-32,29,-50,-12,34,57,34,17, 
  /* [2][0][][] */ -6,6,61,-32,-22,-77,18,21,100,68,-58,13,115,-41,127,72,-67,-7,-37,20,86,-78,-29,-80,2,-31,42,-72,51,42,-35,15,30,-21,67,41,-71,17,3,-34,29,22,57,-10,18,-78,98,-58, 
  /* [3][0][][] */ 33,1,-27,-20,27,108,19,-15,44,-51,28,-22,-54,11,7,43,-40,-66,45,-127,-11,-8,-24,-16,-41,93,125,71,-7,-45,31,45,59,-26,100,34,-52,-59,8,45,16,8,-16,2,26,22,-9,-25, 
  /* [4][0][][] */ 101,-2,14,-50,89,81,51,13,74,-9,-116,29,43,-22,17,-12,-98,-125,-20,-92,-25,36,-33,-29,-78,127,-95,114,-60,-57,22,72,44,-39,9,-27,-2,11,-35,30,-44,-14,1,62,-52,101,-23,-55, 
  /* [5][0][][] */ 3,-10,-53,5,-12,53,20,-33,66,50,40,92,56,-25,35,-2,-39,127,-21,37,10,0,-68,-19,38,-3,-74,-34,-15,32,21,-18,-39,-1,41,16,-45,10,-90,3,89,-20,33,47,-18,6,-47,34, 
  /* [6][0][][] */ 62,19,15,89,2,-29,112,-46,11,74,118,113,37,48,-66,76,49,-47,-61,93,47,-61,-35,71,-72,99,100,-15,124,45,-41,4,103,-51,-127,-5,99,23,5,15,24,56,55,-32,66,117,40,-3, 
  /* [7][0][][] */ -93,-9,-23,36,-63,-54,18,37,72,119,-57,-68,-96,9,-27,-16,-75,90,2,127,-44,37,21,45,-18,-88,-23,-81,31,47,-9,0,-19,14,15,-15,3,-56,123,16,4,32,18,-21,49,64,-25,-2, 
  /* [8][0][][] */ -6,-77,48,-56,62,-55,73,-27,-21,-113,25,11,-29,-4,31,36,6,5,-27,93,4,34,-9,25,71,-14,-58,-33,-127,-32,-54,-95,12,-64,2,83,-2,28,105,22,20,3,72,114,2,-68,-37,75, 
  /* [9][0][][] */ 20,-47,20,-73,34,82,-38,36,20,-39,-37,-25,20,-37,125,-22,-4,-116,40,42,-72,36,53,-36,-29,-78,-31,82,60,82,-39,-31,-57,27,-6,127,-32,-40,-53,-27,-33,-8,31,115,62,88,-71,10, 
  /* [10][0][][] */ -10,12,-24,-12,20,29,-67,-55,54,36,63,-9,-32,-6,50,-55,-61,127,-11,53,-1,-7,13,26,-43,43,1,92,32,11,-32,-14,70,-1,-9,28,-6,-43,-42,22,-78,-4,25,-19,13,43,28,34, 
  /* [11][0][][] */ -28,56,-20,37,35,58,-2,10,24,13,-127,-78,75,23,-2,-46,0,30,-43,-45,-7,-12,114,9,49,8,-19,42,-10,20,1,50,27,0,-44,4,43,85,109,23,32,-36,68,-7,-54,-25,96,10, 
  /* [12][0][][] */ -61,-6,34,20,-58,-50,8,5,-33,-39,-127,13,71,-95,22,33,48,102,81,-120,-36,47,-44,-87,-3,-23,27,-32,4,17,-20,79,63,81,33,-38,-59,-27,27,-2,-25,10,61,0,30,-14,-50,-40, 
  /* [13][0][][] */ -59,-126,-51,-106,5,30,55,-3,-125,26,120,-67,54,48,127,-5,105,25,-8,-91,73,-84,108,-5,-85,7,-37,18,-43,-84,-108,10,38,-31,-72,57,23,-48,82,-83,-11,53,67,42,50,-21,95,-69, 
  /* [14][0][][] */ 64,31,-58,8,-39,16,-84,-15,-36,61,61,49,-12,-66,16,-45,59,-112,29,-1,98,-70,29,0,-14,127,-88,8,-50,-32,-90,6,124,46,97,-29,-84,13,-18,58,-24,-42,105,-20,-50,-38,-53,51, 
  /* [15][0][][] */ -66,10,36,15,98,9,-5,25,17,82,-13,56,56,-10,-39,-27,12,39,4,-32,23,-42,-54,-63,52,-68,-46,72,-35,16,18,6,-68,-2,127,-2,-95,22,63,-15,-48,-24,15,-7,-38,-34,-11,11, 
};
const TfArray<4, int> tensor_dimension21 = { 4, { 16,1,1,48 } };
const TfArray<16, float> quant21_scale = { 16, { 0.0071071847341954708, 0.006364419125020504, 0.0072489161975681782, 0.0059868595562875271, 0.0033140841405838728, 0.006338121835142374, 0.0036584127228707075, 0.0065574473701417446, 0.0045213904231786728, 0.0030351676978170872, 0.0062158619984984398, 0.0062908562831580639, 0.0045667332597076893, 0.0031396937556564808, 0.0053330352529883385, 0.0054221577011048794, } };
const TfLiteAffineQuantization quant21 = { (TfLiteFloatArray*)&quant21_scale, (TfLiteIntArray*)&g0::quant8_zero, 0 };
const MODEL_SECTION(EI_MODEL_SECTION) ALIGN(16) int32_t tensor_data22[48] = { 15556, -612, 17139, -693, 18401, -2614, 36343, 236, 13065, 30471, -1588, 23490, -1478, 11679, 34260, 32109, 1300, -4846, 6451, 39165, -1516, 19147, 757, 18938, 25642, 34018, 1044, -1668, -4878, 15029, 19552, -77, 2039, -1400, 523, 17745, 11941, 34750, -436, 22546, 27246, -608, 1215, 15830, -493, -1905, 36501, 28556, };
const TfArray<1, int> tensor_dimension22 = { 1, { 48 } };
const TfArray<48, float> quant22_scale = { 48, { 9.6102972747758031e-05, 0.00013948880950920284, 7.7870754466857761e-05, 0.00014682624896522611, 0.00011401311348890886, 9.2937516456004232e-05, 5.607886123470962e-05, 0.00023367887479253113, 0.00012871529906988144, 7.6985015766695142e-05, 8.3782892033923417e-05, 0.00012358378444332629, 9.5458075520582497e-05, 0.00010197000665357336, 4.8262096242979169e-05, 6.7691202275454998e-05, 0.00010094711615238339, 8.4971026808489114e-05, 0.00014129570627119392, 6.3126768509391695e-05, 7.9670920968055725e-05, 8.2538324932102114e-05, 0.00010327405470889062, 0.00012041933950968087, 6.4077074057422578e-05, 7.7409851655829698e-05, 6.0015678172931075e-05, 5.6671095080673695e-05, 0.00022513781732413918, 9.3609822215512395e-05, 7.2962611739058048e-05, 0.00031178086646832526, 8.9642264356371015e-05, 0.00019780821457970887, 9.0387024101801217e-05, 8.2916478277184069e-05, 9.8843745945487171e-05, 4.6974026190582663e-05, 0.00010403197666164488, 0.00010667961760191247, 5.8248551795259118e-05, 0.00013705008313991129, 0.00020300812320783734, 7.0949339715298265e-05, 0.00014830261352472007, 7.5193667726125568e-05, 5.3830408432986587e-05, 6.277472130022943e-05, } };
const TfArray<48, int> quant22_zero = { 48, { 0,0,0,0,0,0,0,0,0,0,0,0,0,0,0,0,0,0,0,0,0,0,0,0,0,0,0,0,0,0,0,0,0,0,0,0,0,0,0,0,0,0,0,0,0,0,0,0 } };
const TfLiteAffineQuantization quant22 = { (TfLiteFloatArray*)&quant22_scale, (TfLiteIntArray*)&quant22_zero, 0 };
const MODEL_SECTION(EI_MODEL_SECTION) ALIGN(16) int8_t tensor_data23[1*3*3*48] = { 
  /* [0][0][][] */ -101,50,-127,101,-106,78,-41,67,-88,-69,65,-40,58,-72,-64,-91,58,75,96,-99,102,-98,69,-90,-86,-53,73,127,-102,-76,-63,50,91,-84,77,-113,-92,-125,102,-32,-28,-107,108,-90,103,61,-69,-51, -127,75,-67,99,-63,127,-20,111,-127,-92,107,-53,90,-110,-71,-115,83,99,127,-127,117,-127,88,-127,-109,-97,87,123,29,-89,-108,78,118,-127,103,-127,-92,-124,127,-48,-119,83,127,-87,-43,97,-90,-81, -67,54,-17,14,-27,67,-40,71,-80,-39,53,-23,34,-45,-22,-46,41,50,78,-28,21,-59,33,-50,-89,-42,28,39,92,-50,-71,63,28,-70,36,-30,-45,-40,55,-52,-127,-24,26,-30,-61,64,-25,-88, 
  /* [0][1][][] */ -91,107,-46,127,-57,116,-127,107,-110,-88,78,-78,83,-99,-95,-91,111,79,-65,-82,103,-96,90,-70,-115,-90,97,99,-127,-102,-96,67,101,32,98,-119,-102,-127,111,-104,-106,-104,77,-127,127,66,-94,-114, -127,127,-98,120,-127,123,-118,127,-120,-127,127,-127,127,-127,-127,-127,127,127,-83,-95,127,-124,127,-122,-127,-127,127,95,40,-127,-127,75,127,40,127,-122,-127,-100,127,-127,-119,127,107,-111,-58,127,-127,-127, -71,74,-89,15,-60,34,-73,96,-58,-34,53,-65,46,-39,-56,-13,80,57,-46,-26,26,-61,48,-40,-124,-70,55,33,107,-56,-83,60,22,15,55,-46,-48,-30,55,-85,-45,-59,20,-58,-80,70,-12,-112, 
